tree
version=v4
num_class=1
num_tree_per_iteration=1
label_index=0
max_feature_idx=363
objective=binary sigmoid:1
feature_names=team_1_adjoe team_1_adjde team_2_adjoe team_2_adjde team_1_score_last2 team_1_score_variance_last2 team_1_score_trend_last2 team_1_score_last3 team_1_score_variance_last3 team_1_score_trend_last3 team_1_score_last4 team_1_score_variance_last4 team_1_score_trend_last4 team_1_score_last5 team_1_score_variance_last5 team_1_score_trend_last5 team_1_score_last9 team_1_score_variance_last9 team_1_score_trend_last9 team_1_score_last11 team_1_score_variance_last11 team_1_score_trend_last11 team_1_score_last13 team_1_score_variance_last13 team_1_score_trend_last13 team_1_score_last15 team_1_score_variance_last15 team_1_score_trend_last15 team_2_score_last2 team_2_score_variance_last2 team_2_score_trend_last2 team_2_score_last3 team_2_score_variance_last3 team_2_score_trend_last3 team_2_score_last4 team_2_score_variance_last4 team_2_score_trend_last4 team_2_score_last5 team_2_score_variance_last5 team_2_score_trend_last5 team_2_score_last9 team_2_score_variance_last9 team_2_score_trend_last9 team_2_score_last11 team_2_score_variance_last11 team_2_score_trend_last11 team_2_score_last13 team_2_score_variance_last13 team_2_score_trend_last13 team_2_score_last15 team_2_score_variance_last15 team_2_score_trend_last15 team_1_efg_pct_last2 team_1_efg_pct_variance_last2 team_1_efg_pct_trend_last2 team_1_efg_pct_last3 team_1_efg_pct_variance_last3 team_1_efg_pct_trend_last3 team_1_efg_pct_last4 team_1_efg_pct_variance_last4 team_1_efg_pct_trend_last4 team_1_efg_pct_last5 team_1_efg_pct_variance_last5 team_1_efg_pct_trend_last5 team_1_efg_pct_last9 team_1_efg_pct_variance_last9 team_1_efg_pct_trend_last9 team_1_efg_pct_last11 team_1_efg_pct_variance_last11 team_1_efg_pct_trend_last11 team_1_efg_pct_last13 team_1_efg_pct_variance_last13 team_1_efg_pct_trend_last13 team_1_efg_pct_last15 team_1_efg_pct_variance_last15 team_1_efg_pct_trend_last15 team_2_efg_pct_last2 team_2_efg_pct_variance_last2 team_2_efg_pct_trend_last2 team_2_efg_pct_last3 team_2_efg_pct_variance_last3 team_2_efg_pct_trend_last3 team_2_efg_pct_last4 team_2_efg_pct_variance_last4 team_2_efg_pct_trend_last4 team_2_efg_pct_last5 team_2_efg_pct_variance_last5 team_2_efg_pct_trend_last5 team_2_efg_pct_last9 team_2_efg_pct_variance_last9 team_2_efg_pct_trend_last9 team_2_efg_pct_last11 team_2_efg_pct_variance_last11 team_2_efg_pct_trend_last11 team_2_efg_pct_last13 team_2_efg_pct_variance_last13 team_2_efg_pct_trend_last13 team_2_efg_pct_last15 team_2_efg_pct_variance_last15 team_2_efg_pct_trend_last15 team_1_adjoe_last2 team_1_adjoe_variance_last2 team_1_adjoe_last3 team_1_adjoe_variance_last3 team_1_adjoe_last4 team_1_adjoe_variance_last4 team_1_adjoe_last5 team_1_adjoe_variance_last5 team_1_adjoe_last9 team_1_adjoe_variance_last9 team_1_adjoe_last11 team_1_adjoe_variance_last11 team_1_adjoe_last13 team_1_adjoe_variance_last13 team_1_adjoe_last15 team_1_adjoe_variance_last15 team_2_adjoe_last2 team_2_adjoe_variance_last2 team_2_adjoe_last3 team_2_adjoe_variance_last3 team_2_adjoe_last4 team_2_adjoe_variance_last4 team_2_adjoe_last5 team_2_adjoe_variance_last5 team_2_adjoe_last9 team_2_adjoe_variance_last9 team_2_adjoe_last11 team_2_adjoe_variance_last11 team_2_adjoe_last13 team_2_adjoe_variance_last13 team_2_adjoe_last15 team_2_adjoe_variance_last15 team_1_adjde_last2 team_1_adjde_variance_last2 team_1_adjde_last3 team_1_adjde_variance_last3 team_1_adjde_last4 team_1_adjde_variance_last4 team_1_adjde_last5 team_1_adjde_variance_last5 team_1_adjde_last9 team_1_adjde_variance_last9 team_1_adjde_last11 team_1_adjde_variance_last11 team_1_adjde_last13 team_1_adjde_variance_last13 team_1_adjde_last15 team_1_adjde_variance_last15 team_2_adjde_last2 team_2_adjde_variance_last2 team_2_adjde_last3 team_2_adjde_variance_last3 team_2_adjde_last4 team_2_adjde_variance_last4 team_2_adjde_last5 team_2_adjde_variance_last5 team_2_adjde_last9 team_2_adjde_variance_last9 team_2_adjde_last11 team_2_adjde_variance_last11 team_2_adjde_last13 team_2_adjde_variance_last13 team_2_adjde_last15 team_2_adjde_variance_last15 team_1_adj_t_last2 team_1_adj_t_variance_last2 team_1_adj_t_last3 team_1_adj_t_variance_last3 team_1_adj_t_last4 team_1_adj_t_variance_last4 team_1_adj_t_last5 team_1_adj_t_variance_last5 team_1_adj_t_last9 team_1_adj_t_variance_last9 team_1_adj_t_last11 team_1_adj_t_variance_last11 team_1_adj_t_last13 team_1_adj_t_variance_last13 team_1_adj_t_last15 team_1_adj_t_variance_last15 team_2_adj_t_last2 team_2_adj_t_variance_last2 team_2_adj_t_last3 team_2_adj_t_variance_last3 team_2_adj_t_last4 team_2_adj_t_variance_last4 team_2_adj_t_last5 team_2_adj_t_variance_last5 team_2_adj_t_last9 team_2_adj_t_variance_last9 team_2_adj_t_last11 team_2_adj_t_variance_last11 team_2_adj_t_last13 team_2_adj_t_variance_last13 team_2_adj_t_last15 team_2_adj_t_variance_last15 team_1_score_closest3rank team_1_score_allowed_closest3rank team_1_total_closest3rank team_1_margin_closest3rank team_1_adjoe_closest3rank team_1_adjde_closest3rank team_1_score_closest5rank team_1_score_allowed_closest5rank team_1_total_closest5rank team_1_margin_closest5rank team_1_adjoe_closest5rank team_1_adjde_closest5rank team_1_score_closest7rank team_1_score_allowed_closest7rank team_1_total_closest7rank team_1_margin_closest7rank team_1_adjoe_closest7rank team_1_adjde_closest7rank team_2_score_closest3rank team_2_score_allowed_closest3rank team_2_total_closest3rank team_2_margin_closest3rank team_2_adjoe_closest3rank team_2_adjde_closest3rank team_2_score_closest5rank team_2_score_allowed_closest5rank team_2_total_closest5rank team_2_margin_closest5rank team_2_adjoe_closest5rank team_2_adjde_closest5rank team_2_score_closest7rank team_2_score_allowed_closest7rank team_2_total_closest7rank team_2_margin_closest7rank team_2_adjoe_closest7rank team_2_adjde_closest7rank combined_expected_total_closest3rank combined_adjoe_closest3rank adjoe_differential_closest3rank combined_adjde_closest3rank adjde_differential_closest3rank combined_expected_total_closest5rank combined_adjoe_closest5rank adjoe_differential_closest5rank combined_adjde_closest5rank adjde_differential_closest5rank combined_expected_total_closest7rank combined_adjoe_closest7rank adjoe_differential_closest7rank combined_adjde_closest7rank adjde_differential_closest7rank rank_differential barthag_differential adj_tempo_differential adjoe_differential adjde_differential efg_off_differential efg_def_differential orb_rate_differential tor_rate_differential 3p_rate_differential ftr_differential combined_adjoe combined_adjde betmgm_ou_line betmgm_over_odds betmgm_under_odds betmgm_ml_team_1 betmgm_ml_team_2 betmgm_spread_pts_team_1 betmgm_spread_odds_team_1 betmgm_spread_pts_team_2 betmgm_spread_odds_team_2 betonline_ou_line betonline_over_odds betonline_under_odds betonline_ml_team_1 betonline_ml_team_2 betonline_spread_pts_team_1 betonline_spread_odds_team_1 betonline_spread_pts_team_2 betonline_spread_odds_team_2 bovada_ou_line bovada_over_odds bovada_under_odds bovada_ml_team_1 bovada_ml_team_2 bovada_spread_pts_team_1 bovada_spread_odds_team_1 bovada_spread_pts_team_2 bovada_spread_odds_team_2 draftkings_ou_line draftkings_over_odds draftkings_under_odds draftkings_ml_team_1 draftkings_ml_team_2 draftkings_spread_pts_team_1 draftkings_spread_odds_team_1 draftkings_spread_pts_team_2 draftkings_spread_odds_team_2 fanduel_ou_line fanduel_over_odds fanduel_under_odds fanduel_ml_team_1 fanduel_ml_team_2 fanduel_spread_pts_team_1 fanduel_spread_odds_team_1 fanduel_spread_pts_team_2 fanduel_spread_odds_team_2 lowvig_ou_line lowvig_over_odds lowvig_under_odds lowvig_ml_team_1 lowvig_ml_team_2 lowvig_spread_pts_team_1 lowvig_spread_odds_team_1 lowvig_spread_pts_team_2 lowvig_spread_odds_team_2 mybookie_ou_line mybookie_over_odds mybookie_under_odds mybookie_ml_team_1 mybookie_ml_team_2 mybookie_spread_pts_team_1 mybookie_spread_odds_team_1 mybookie_spread_pts_team_2 mybookie_spread_odds_team_2 avg_ou_line ou_line_variance avg_over_odds avg_under_odds num_books_with_ou avg_spread_pts_team_1 avg_spread_pts_team_2 spread_variance avg_spread_odds_team_1 avg_spread_odds_team_2 avg_ml_team_1 avg_ml_team_2 num_books_with_spread num_books_with_ml implied_team_1_score implied_team_2_score spread_ou_agreement team_1_games_available team_2_games_available team_1_data_quality team_2_data_quality team_1_days_rest team_1_back_to_back_flag team_1_games_in_last_5_days team_2_days_rest team_2_back_to_back_flag team_2_games_in_last_5_days team_1_is_home_game team_1_home_court_advantage team_1_is_neutral_site team_2_is_home_game team_2_home_court_advantage team_2_is_neutral_site is_conference_game is_conference_rematch is_early_game is_afternoon_game is_evening_game is_late_game hour_of_day hours_until_game_from_odds
feature_infos=[0:142.726] [0:130.9203] [0:130.87950000000001] [0:129.37549999999999] [0:106] [0:42] [-84:58] [0:105.33333333333333] [0:37.950259843935491] [-40.5:25.5] [0:104.25] [0:33.727667508375902] [-35:23] [0:104.25] [0:33.727667508375902] [-35:23] [0:104.25] [0:33.727667508375902] [-35:23] [0:104.25] [0:33.727667508375902] [-35:23] [0:104.25] [0:33.727667508375902] [-35:23] [0:104.25] [0:33.727667508375902] [-35:23] [0:106] [0:33.5] [-62:67] [0:99.666666666666671] [0:27.884683171152503] [-33:27.5] [0:99.666666666666671] [0:26.767517628648346] [-33:24] [0:99.666666666666671] [0:27.949955277245078] [-33:24] [0:99.666666666666671] [0:27.217743395725435] [-33:24] [0:99.666666666666671] [0:27.217743395725435] [-33:24] [0:99.666666666666671] [0:27.217743395725435] [-33:24] [0:99.666666666666671] [0:27.217743395725435] [-33:24] [0:72.700000000000003] [0:24.100000000000001] [-48.200000000000003:36.100000000000009] [0:71.899999999999991] [0:20.001055527702089] [-24.5:20.700000000000003] [0:71.150000000000006] [0:18.30778522924059] [-24.5:19.299999999999997] [0:71.150000000000006] [0:18.30778522924059] [-24.5:19.299999999999997] [0:71.150000000000006] [0:18.30778522924059] [-24.5:19.299999999999997] [0:71.150000000000006] [0:18.30778522924059] [-24.5:19.299999999999997] [0:71.150000000000006] [0:18.30778522924059] [-24.5:19.299999999999997] [0:71.150000000000006] [0:18.30778522924059] [-24.5:19.299999999999997] [0:70.549999999999997] [0:21.900000000000002] [-43.800000000000004:40.700000000000003] [0:65.733333333333334] [0:19.752186939397088] [-38.300000000000004:19.700000000000003] [0:66.424999999999997] [0:18.100621536289854] [-19.600000000000001:19.700000000000003] [0:65.840000000000003] [0:18.100621536289854] [-19.600000000000001:19.700000000000003] [0:65.450000000000003] [0:18.100621536289854] [-19.600000000000001:19.700000000000003] [0:65.450000000000003] [0:18.100621536289854] [-19.600000000000001:19.700000000000003] [0:65.450000000000003] [0:18.100621536289854] [-19.600000000000001:19.700000000000003] [0:65.450000000000003] [0:18.100621536289854] [-19.600000000000001:19.700000000000003] [0:139.17105000000001] [0:18.182949999999998] [0:136.29730000000001] [0:17.143049662634578] [0:134.90225000000001] [0:15.170955352910372] [0:134.90225000000001] [0:15.170955352910372] [0:134.90225000000001] [0:15.170955352910372] [0:134.90225000000001] [0:15.170955352910372] [0:134.90225000000001] [0:15.170955352910372] [0:134.90225000000001] [0:15.170955352910372] [0:139.17105000000001] [0:18.182949999999998] [0:136.29730000000001] [0:17.143049662634578] [0:134.90225000000001] [0:15.791350000000001] [0:133.78044] [0:15.791350000000001] [0:133.41559999999998] [0:15.791350000000001] [0:133.51779090909091] [0:15.791350000000001] [0:133.51232307692308] [0:15.791350000000001] [0:133.41559999999998] [0:15.791350000000001] [0:140.92779999999999] [0:19.390699999999995] [0:136.17666666666665] [0:18.281727282605313] [0:132.70089999999999] [0:15.985219489891275] [0:132.70089999999999] [0:15.844068422248395] [0:132.70089999999999] [0:15.844068422248395] [0:132.70089999999999] [0:15.844068422248395] [0:132.70089999999999] [0:15.844068422248395] [0:132.70089999999999] [0:15.844068422248395] [0:140.92779999999999] [0:19.390699999999995] [0:136.17666666666665] [0:18.281727282605313] [0:136.17666666666665] [0:15.985219489891275] [0:136.17666666666665] [0:15.985219489891275] [0:136.17666666666665] [0:15.985219489891275] [0:136.17666666666665] [0:15.985219489891275] [0:136.17666666666665] [0:15.985219489891275] [0:136.17666666666665] [0:15.985219489891275] [0:89.450000000000003] [0:7.8500000000000014] [0:86.733333333333334] [0:7.4010509764191985] [0:84.625] [0:7.4010509764191985] [0:83.899999999999991] [0:7.4010509764191985] [0:83.899999999999991] [0:7.4010509764191985] [0:83.899999999999991] [0:7.4010509764191985] [0:83.899999999999991] [0:7.4010509764191985] [0:83.899999999999991] [0:7.4010509764191985] [0:89.450000000000003] [0:7.8500000000000014] [0:86.733333333333334] [0:7.4010509764191985] [0:86.733333333333334] [0:6.5534342142116611] [0:86.733333333333334] [0:6.5534342142116611] [0:86.733333333333334] [0:6.5534342142116611] [0:86.733333333333334] [0:6.5534342142116611] [0:86.733333333333334] [0:6.5534342142116611] [0:86.733333333333334] [0:6.5534342142116611] [0:110.62264150943396] [0:112.33333333333333] [0:220.47999999999999] [-53.113772455089823:49.855036855036865] [0:136.67055393258428] [0:134.8177] [0:108.14666666666668] [0:112.33333333333333] [0:220.47999999999999] [-53.113772455089823:47.241860465116275] [0:136.67055393258428] [0:134.8177] [0:108.14666666666668] [0:112.33333333333333] [0:220.47999999999999] [-53.113772455089823:47.241860465116275] [0:136.67055393258428] [0:134.8177] [0:107.00000000000001] [0:111] [0:217] [-48.999999999999993:52] [0:136.14250689655177] [0:133.56370000000001] [0:107.00000000000001] [0:111] [0:217] [-48.999999999999993:52] [0:136.14250689655177] [0:133.56370000000001] [0:107.00000000000001] [0:111] [0:217] [-48.999999999999993:52] [0:136.14250689655177] [0:133.56370000000001] [0:196.10526315789474] [0:128.80090000000001] [-47.464001298905998:49.290540984334797] [0:128.31229999999999] [-41.994900000000001:44.680464705780537] [0:189.06386773684574] [0:128.66079484848484] [-46.454341679296277:49.168270355125102] [0:128.31229999999999] [-41.994900000000001:43.231821878031511] [0:189.06386773684574] [0:128.69976142241379] [-46.454341679296277:48.790776336380205] [0:128.31229999999999] [-41.994900000000001:43.231821878031511] [-356:356] [-0.95599999999999996:0.91710000000000003] [-16.000000000000007:20.399999999999999] [-47.041999999999987:44.167000000000002] [-36.770899999999997:36.068600000000004] [-21.700000000000003:25.300000000000004] [-20.899999999999999:38] [-30.399999999999999:29.500000000000004] [-18.599999999999998:18.800000000000004] [-31.900000000000002:30.999999999999996] [-59.200000000000003:39.900000000000006] [0:133.39544999999998] [0:124.04724999999999] [0:179.5] [-135:115] [-149:110] [-10000:3300] [-10000:3300] [-43.5:42.5] [-10000:3300] [-42.5:43.5] [-10000:3300] [0:180] [-133:110] [-133:110] [-100000:2500] [-100000:3500] [-43.5:42.5] [-141:110] [-42.5:43.5] [-130:120] [0:180] [-133:110] [-133:110] [-20000:2800] [-20000:3500] [-43.5:43] [-125:105] [-43:43.5] [-125:105] [0:179.5] [-133:106] [-133:110] [-100000:4000] [-50000:5000] [-43.5:42.5] [-141:120] [-42.5:43.5] [-141:120] [0:179.5] [-133:112] [-138:108] [-100000:7000] [-100000:7000] [-43.5:41.5] [-128:106] [-41.5:43.5] [-130:104] [0:180] [-133:116] [-135:111] [-15000:2500] [-15000:3500] [-43.5:42.5] [-137:114] [-42.5:43.5] [-127:123] [0:179.75] [-143:110] [-133:100] [-10000:2000] [-10000:2000] [-43.5:42] [-133:100] [-42:43.5] [-143:105] [0:179.75] [0:58.133765766740268] [-133:106] [-133:100] [0:16] [-43.399999999999999:42.75] [-42.75:43.399999999999999] [0:13.497106171324281] [-2582.5:569.79999999999995] [-2093.8000000000002:542.5] [-100000:4042.8571428571427] [-100000:4500] [0:18] [0:18] [0:100.05000000000001] [0:104.33333333333334] [0:43.400000000000006] [1:39] [1:39] [0.52500000000000002:1] [0.5:1] [1:55] none [0:4] [1:35] none [0:4] [0:1] [0:1.5] none [0:1] [0:1.5] none none none [0:1] [0:1] [0:1] [0:1] [0:23] [-38:33]
tree_sizes=1228 1242 1244 1241 1247 1236 1247 1239 1249 1250 1236 1247 1242 1236 1242 1237 1228 1241 1237 1234 1234 1213 1252 1221 1219 1251 1253 1244 1218 1244 1205 1232 1191 1200 1231 1245 1242 1249 1245 1244 1242 1246 1235 1246 1241 1242 1224 1240 1243 1236 1222 1212 1244 1240 1203 1217 1241 1235 1225 1250 1183 1197 1209 1217 1168 1243 1244 1191 1220 1222 1234 1240 1234 1223 1233 1203 1200 1213 1243 1230 1246 1228 1243 1227 1228 1247 1250 1216 1202 1224 1239 1247 1247 1244 1247 1209 1221 1248 1219 1238 1237 1225 1247 1242 1250 1225 1229 1234 1246 1240 1245 1250 1238 1201 1251 1214 1244 1216 1233 1204 1230 1245 1233 1241 1244 1229 1246 1239 1240 1251 1211 1221 1222 1247 1203 1248 1228 1231 1236 1241 1252 1208 1208 1218 1250 1250 1237 1229 1246 1227 1247 1257 1225 1231 1226 1222 1234 1242 1234 1224 1243 1249 1252 1242 1254 1243 1242 1205 1206 1248 1247 1205 1227 1226 1226 1235 1247 1249 1240 1258 1234 1247 1247 1246 1245 1222 1209 1243 1245 1235 1223 1207 1203 1188 1217 1257 1252 1256 1257 1234

Tree=0
num_leaves=10
num_cat=0
split_feature=329 328 328 333 328 248 328 333 248
split_gain=2745.33 521.51 458.51 68.9847 46.9758 35.4313 27.841 24.4418 17.3657
threshold=-0.61249999999999993 -6.5357142857142847 5.7678571428571432 -172.89999999999998 9.3452380952380967 -0.17409999999999992 -9.4642857142857135 132.08333333333334 0.27770000000000006
decision_type=2 2 2 2 2 2 2 2 2
left_child=2 6 7 -3 -4 -5 -2 -1 -7
right_child=1 3 4 5 -6 8 -8 -9 -10
leaf_value=-0.037751863954867168 -0.016274152188034924 -0.02731563485343352 -0.048187680318418448 -0.041078049540594602 -0.054439382228836417 -0.033181714074052723 -0.022615366695298691 -0.04190467213448465 -0.02541997558662051
leaf_weight=449.10649998486042 469.59995184838772 437.86009347438812 457.8537050485611 66.728678628802299 544.07615496218204 686.53063742816448 298.40465274453163 481.84603893756866 46.485146909952164
leaf_count=1797 1879 1752 1832 267 2177 2747 1194 1928 186
internal_value=-0.0359974 -0.0262664 -0.0461236 -0.0311464 -0.0517176 -0.0333571 -0.0185601 -0.0399863 -0.0325422
internal_weight=3938.49 2005.61 1932.88 1237.6 1001.93 799.744 768.005 930.953 733.016
internal_count=15759 8025 7734 4952 4009 3200 3073 3725 2933
is_linear=0
shrinkage=1


Tree=1
num_leaves=10
num_cat=0
split_feature=328 328 328 333 328 248 339 333 248
split_gain=2681.35 496.671 462.448 64.3831 45.7787 35.449 27.3886 25.9284 16.3848
threshold=1.0000000180025095e-35 -6.5357142857142847 5.7678571428571432 -172.89999999999998 9.3452380952380967 -0.17409999999999992 9.3452380952381038 132.08333333333334 0.27770000000000006
decision_type=2 2 2 2 2 2 2 2 2
left_child=1 6 7 -3 -4 -5 -1 -2 -7
right_child=2 3 4 5 -6 8 -8 -9 -10
leaf_value=0.012876913231921928 -0.0018944927676907476 0.0083317509055124486 -0.012296625494299303 -0.0054581609672447887 -0.018478887502835075 0.0026220161037373941 0.019196286770249017 -0.006085104547169231 0.01021528441947259
leaf_weight=290.46285900473595 473.83269092440605 437.91831171512604 457.73421764373779 63.473218083381653 543.84696757793427 665.06692676246166 477.71786998212337 481.78846514225006 46.492488920688629
leaf_count=1162 1896 1752 1832 254 2177 2661 1911 1928 186
internal_value=-0.00024634 0.00949036 -0.0101315 0.00464634 -0.0157878 0.00244759 0.0169825 -0.00408989 0.00326904
internal_weight=3938.33 1981.13 1957.2 1212.95 1001.58 775.033 768.181 955.621 711.559
internal_count=15759 7926 7833 4853 4009 3101 3073 3824 2847
is_linear=0
shrinkage=0.0119055


Tree=2
num_leaves=10
num_cat=0
split_feature=334 334 339 294 339 234 339 334 336
split_gain=2535.59 484.673 450.909 64.5074 42.9139 32.3232 30.9806 25.6189 22.2769
threshold=-105.92857142857142 224.80357142857147 5.7678571428571397 3.2500000000000004 9.3452380952381038 -6.8932765724989684 9.3452380952381038 -140.08333333333329 1.0000000180025095e-35
decision_type=2 2 2 2 2 2 2 2 2
left_child=2 3 7 5 -4 8 -3 -1 -2
right_child=1 6 4 -5 -6 -7 -8 -9 -10
leaf_value=-0.0054453394171060402 -0.0078222497960547966 0.012584254577794433 -0.012136525310292407 0.0078370619198710415 -0.018217702967948043 0.0031882667165702761 0.018879423052183628 -0.0011457899699144124 0.0012746735668971499
leaf_weight=635.16234914958477 66.460834428668022 324.23978701233864 454.58433564007282 461.1987694054842 527.29875755310059 597.6090057939291 466.49899280071259 344.87055803835392 59.983441770076752
leaf_count=2542 266 1297 1820 1845 2112 2391 1866 1380 240
internal_value=-0.000243132 0.00924901 -0.00983285 0.00433377 -0.0155384 0.0019822 0.0164682 -0.00400627 -0.00316959
internal_weight=3937.91 1975.99 1961.92 1185.25 981.883 724.053 790.739 980.033 126.444
internal_count=15759 7905 7854 4742 3932 2897 3163 3922 506
is_linear=0
shrinkage=0.0119055


Tree=3
num_leaves=10
num_cat=0
split_feature=334 334 339 285 339 234 339 336 334
split_gain=2477.18 473.381 440.778 55.0428 41.8782 32.7471 30.1208 25.7746 24.9838
threshold=-105.92857142857142 224.80357142857147 5.7678571428571397 3.2500000000000004 9.3452380952381038 -6.8932765724989684 9.3452380952381038 1.0000000180025095e-35 -140.08333333333329
decision_type=2 2 2 2 2 2 2 2 2
left_child=2 3 8 5 -4 7 -3 -2 -1
right_child=1 6 4 -5 -6 -7 -8 -9 -10
leaf_value=-0.0053817271640333496 -0.0079625778449761327 0.01243635509418332 -0.011998421601482878 0.0078955926349187546 -0.018016248355459459 0.0034419746254974585 0.01865918172959663 0.0017560547534770255 -0.0011323685401663248
leaf_weight=635.07819604873657 65.948090940713882 324.24903032183647 454.40094490349293 403.22942180931568 526.90514659881592 650.38485322892666 466.44505605101585 65.73461776971817 344.8628161996603
leaf_count=2542 264 1297 1820 1613 2112 2602 1866 263 1380
internal_value=-0.000240128 0.00914105 -0.00972131 0.00428283 -0.015365 0.00230616 0.0162763 -0.00278885 -0.00396006
internal_weight=3937.24 1975.99 1961.25 1185.3 981.306 782.068 790.694 131.683 979.941
internal_count=15759 7905 7854 4742 3932 3129 3163 527 3922
is_linear=0
shrinkage=0.0119055


Tree=4
num_leaves=10
num_cat=0
split_feature=329 328 328 333 328 328 250 333 328
split_gain=2502.62 474.852 418.831 62.9279 43.0014 24.8031 24.3574 22.4502 16.4426
threshold=-0.61249999999999993 -6.5357142857142847 5.7678571428571432 -172.89999999999998 12.035714285714286 -9.4642857142857135 -1.3909000000000018 132.08333333333334 -1.4642857142857142
decision_type=2 2 2 2 2 2 2 2 2
left_child=2 5 7 -3 -4 -2 8 -1 -5
right_child=1 3 4 6 -6 -7 -8 -9 -10
leaf_value=-0.0018983642042202165 0.018584006183479863 0.0080503793987414356 -0.013049129446268374 0.0022764935301025414 -0.019435237377027941 0.012528228333463922 0.0037833616403897116 -0.0058883442664060728 -0.0033631878546926445
leaf_weight=449.02294257283211 469.56162483990192 437.99712291359901 674.78690175712109 135.2284063398838 325.04708245396614 298.48086577653885 523.92430241405964 481.58336567878723 140.6926031857729
leaf_count=1797 1879 1752 2705 541 1304 1194 2096 1928 563
internal_value=-0.000237163 0.00904903 -0.00991548 0.00439008 -0.0152709 0.0164038 0.00227416 -0.00404721 -0.000395965
internal_weight=3936.33 2005.88 1930.44 1237.84 999.834 768.042 799.845 930.606 275.921
internal_count=15759 8025 7734 4952 4009 3073 3200 3725 1104
is_linear=0
shrinkage=0.0119055


Tree=5
num_leaves=10
num_cat=0
split_feature=328 328 328 339 339 328 328 250 251
split_gain=2543.6 448.7 402.879 48.6553 48.085 36.0856 22.2483 20.649 19.1395
threshold=1.0000000180025095e-35 -6.5357142857142847 5.7678571428571432 2.8333333333333326 11.866071428571429 3.5312500000000004 -9.2792207792207773 -1.3034500000000049 -5.1977999999999929
decision_type=2 2 2 2 2 2 2 2 2
left_child=1 6 5 7 -4 -2 -1 8 -3
right_child=2 3 4 -5 -6 -7 -8 -9 -10
leaf_value=0.018317905989450104 -0.0022152421499160432 0.0038873608933712978 -0.012725510887379193 0.0071382834789802552 -0.019286486276604623 -0.0072084881088151026 0.0124615128962556 0.0038730296979490406 -0.0029722634386577331
leaf_weight=490.58388529717922 598.11843873560429 81.980030417442322 646.19738620519638 599.48467592895031 342.10804414749146 362.6220028847456 293.94388894736767 395.70665870606899 156.43978568911552
leaf_count=1964 2394 328 2592 2398 1374 1452 1176 1583 626
internal_value=-9.54823e-05 0.0092466 -0.00979811 0.00467034 -0.0151422 -0.0041891 0.0162919 0.0022065 -0.000337652
internal_weight=3967.18 2018.14 1949.05 1233.61 988.305 960.74 784.528 634.126 238.42
internal_count=15887 8075 7812 4935 3966 3846 3140 2537 954
is_linear=0
shrinkage=0.0119055


Tree=6
num_leaves=10
num_cat=0
split_feature=329 329 339 329 339 329 248 339 248
split_gain=2485.54 438.603 392.994 47.4839 46.3245 36.6881 34.5163 21.6514 14.5851
threshold=-1.0000000180025095e-35 6.5357142857142865 5.8333333333333401 2.8090909090909095 11.866071428571429 -3.5312499999999996 -0.21044999999999997 9.2500000000000053 0.23305000000000006
decision_type=2 2 2 2 2 2 2 2 2
left_child=2 3 5 6 -4 -1 -2 -3 -8
right_child=1 7 4 -5 -6 -7 8 -9 -10
leaf_value=-0.0071909004018751044 -0.0065047186569954325 0.012318194692152654 -0.012605222442087194 0.0070494997744770275 -0.019085124204035141 -0.0021892096865653147 0.0022405006550000411 0.018113114468897649 0.0088206289010335486
leaf_weight=369.51192873716354 50.461814194917679 293.88205321133137 638.76139371097088 600.72852309048176 341.6569849550724 598.0847269743681 523.42604719102383 490.28211638331413 58.997947260737419
leaf_count=1480 202 1176 2564 2403 1374 2394 2094 1964 236
internal_value=-9.41945e-05 0.00914046 -0.00968896 0.00461587 -0.0150091 -0.00418764 0.00217543 0.0161086 0.00307779
internal_weight=3965.79 2017.78 1948.02 1233.61 980.418 967.597 632.886 784.164 582.424
internal_count=15887 8075 7812 4935 3938 3874 2532 3140 2330
is_linear=0
shrinkage=0.0119055


Tree=7
num_leaves=10
num_cat=0
split_feature=328 328 328 333 339 328 328 0 11
split_gain=2428.95 428.846 385.674 47.8248 46.1041 34.3705 21.0891 16.3297 12.3377
threshold=1.0000000180025095e-35 -6.5357142857142847 5.7678571428571432 -152.92857142857142 11.866071428571429 3.5312500000000004 -9.2792207792207773 93.668750000000003 6.0170473680902896
decision_type=2 2 2 2 2 2 2 2 2
left_child=1 6 5 -3 -4 -2 -1 -5 -9
right_child=2 3 4 7 -6 -7 -8 8 -10
leaf_value=0.017913428728882911 -0.0021634875542535245 0.0070433935045130609 -0.012445474413800771 -0.002910423215140377 -0.018889021249130337 -0.0070430151134959727 0.012177416325076372 -0.00023533464961899298 0.0037037455831666678
leaf_weight=489.90320046246052 598.04999446868896 590.70679464936256 645.23883971571922 65.221312388777733 341.14907097816467 362.43485987186432 293.79853457212448 111.23294876515865 466.43584515154362
leaf_count=1964 2394 2363 2592 261 1374 1452 1176 445 1866
internal_value=-9.29313e-05 0.0090361 -0.0095816 0.00456211 -0.0148181 -0.00409335 0.0159294 0.0021536 0.00284758
internal_weight=3964.17 2017.3 1946.87 1233.6 986.388 960.485 783.702 642.89 577.669
internal_count=15887 8075 7812 4935 3966 3846 3140 2572 2311
is_linear=0
shrinkage=0.0119055


Tree=8
num_leaves=10
num_cat=0
split_feature=328 328 328 334 328 328 248 252 328
split_gain=2373.58 419.519 377.454 45.6005 43.8446 33.5513 31.9067 21.6719 20.5589
threshold=1.0000000180025095e-35 -6.5357142857142847 5.7678571428571432 128.07142857142858 12.035714285714286 3.5312500000000004 -0.21044999999999997 -5.6499999999999977 -9.2792207792207773
decision_type=2 2 2 2 2 2 2 2 2
left_child=1 8 5 6 -4 -2 -3 -7 -1
right_child=2 3 4 -5 -6 7 -8 -9 -10
leaf_value=0.017718635181386434 -0.0021380712332221626 -0.0061724612101665133 -0.012380129158977321 0.0068971897758671012 -0.01874670377086305 0.00019693405576018082 0.0029899470950793231 -0.0079518712398880479 0.012039095909621905
leaf_weight=489.44997373223305 598.01426853239536 50.953413501381874 654.61154688894749 599.67097580432892 330.66700300574303 37.181314647197723 582.94739007949829 325.14840352535248 293.69410392642021
leaf_count=1964 2394 204 2632 2399 1334 149 2332 1303 1176
internal_value=-9.21018e-05 0.00893258 -0.00947598 0.00450769 -0.0146608 -0.00404651 0.00211775 -0.00696231 0.0157541
internal_weight=3962.34 2016.72 1945.62 1233.57 985.279 960.344 633.901 362.33 783.144
internal_count=15887 8075 7812 4935 3966 3846 2536 1452 3140
is_linear=0
shrinkage=0.0119055


Tree=9
num_leaves=10
num_cat=0
split_feature=328 328 328 328 328 328 247 252 328
split_gain=2319.58 410.464 369.537 43.0124 42.8534 32.7265 32.6546 21.2474 20.0588
threshold=1.0000000180025095e-35 -6.5357142857142847 5.7678571428571432 12.035714285714286 -2.8660714285714284 3.5312500000000004 92.500000000000014 -5.6499999999999977 -9.2792207792207773
decision_type=2 2 2 2 2 2 2 2 2
left_child=1 8 5 -4 -3 -2 -6 -7 -1
right_child=2 4 3 -5 6 7 -8 -9 -10
leaf_value=0.017528534481170754 -0.0021129573286277946 0.0068082135591784974 -0.012245135680607915 -0.018560175341299126 0.0029898038807461922 0.00019486520542537171 -0.0067003982724524909 -0.0078614166441984736 0.011903156890818669
leaf_weight=488.92513065040112 597.97758109867573 590.87256775796413 654.00746724009514 330.06763668358326 596.95282718539238 37.181629002094269 45.699124649167061 325.03220438957214 293.56951482594013
leaf_count=1964 2394 2364 2632 1334 2388 149 183 1303 1176
internal_value=-9.10001e-05 0.00883099 -0.00937172 -0.0145066 0.00445437 -0.00399959 0.00216241 -0.00688093 0.0155826
internal_weight=3960.29 2016.02 1944.27 984.075 1233.52 960.191 642.652 362.214 782.495
internal_count=15887 8075 7812 3966 4935 3846 2571 1452 3140
is_linear=0
shrinkage=0.0119055


Tree=10
num_leaves=10
num_cat=0
split_feature=334 334 333 334 239 333 334 336 333
split_gain=2140.91 407.346 373.728 49.371 40.0546 35.1843 30.186 23.8758 15.5871
threshold=-105.92857142857142 195.07142857142858 220.07142857142858 398.45238095238102 -8.7378583988605296 537.67857142857156 -165.54999999999998 3.5000000000000004 -172.89999999999998
decision_type=2 2 2 2 2 2 2 2 2
left_child=2 4 6 -3 7 -4 -1 -2 -6
right_child=1 3 5 -5 8 -7 -8 -9 -10
leaf_value=-0.006102978494420026 -0.0071080677182673345 0.0114082611649377 -0.012012987031449186 0.017922022832669471 0.0071105197041058275 -0.018048517815059527 -0.0018283083385496786 0.0032781961734939099 0.0033742448949186641
leaf_weight=485.04612095654011 68.079092517495155 492.07896982133389 544.35203644633293 424.41329289972782 278.39602166414261 341.79184900224209 563.77047862112522 41.99084697663784 717.10472923517227
leaf_count=1946 273 1972 2193 1707 1114 1384 2257 168 2869
internal_value=0.000127312 0.0086981 -0.00879794 0.0145702 0.00373301 -0.0144959 -0.00388128 -0.00265819 0.00450892
internal_weight=3957.02 2022.06 1934.96 916.492 1105.57 886.144 1048.82 110.07 995.501
internal_count=15883 8103 7780 3679 4424 3577 4203 441 3983
is_linear=0
shrinkage=0.0119055


Tree=11
num_leaves=10
num_cat=0
split_feature=328 328 328 328 248 328 328 336 328
split_gain=2166.68 392.333 359.891 49.4904 40.9808 38.3844 28.2456 19.8564 14.6313
threshold=1.0000000180025095e-35 -5.5916666666666659 6.7928571428571436 -9.2792207792207773 -0.17409999999999992 3.5312500000000004 11.792857142857146 2.5000000000000004 -3.464285714285714
decision_type=2 2 2 2 2 2 2 2 2
left_child=1 3 5 -1 7 -2 -4 -3 -6
right_child=2 4 6 -5 8 -7 -8 -9 -10
leaf_value=0.017434815477023143 -0.0020584188414187626 -0.0090042717529196601 -0.012194506639053816 0.010875637267606276 0.0066284412662695278 -0.0067461402900034998 -0.017964882393798252 0.0022723156223337791 0.0032826168516835747
leaf_weight=487.93531702458858 588.15685722231865 44.693314298987389 476.7940456867218 417.44118550419807 367.32631514966488 507.17740289866924 353.43887668848038 24.987200707197189 686.70980203151703
leaf_count=1965 2355 179 1923 1673 1470 2037 1434 100 2747
internal_value=0.000125651 0.00871464 -0.00889341 0.0145523 0.00391487 -0.00430389 -0.0148151 -0.00428203 0.00453062
internal_weight=3954.66 2029.09 1925.57 905.377 1123.72 1095.33 830.233 69.6805 1054.04
internal_count=15883 8134 7749 3638 4496 4392 3357 279 4217
is_linear=0
shrinkage=0.0119055


Tree=12
num_leaves=10
num_cat=0
split_feature=329 339 329 339 248 329 339 332 333
split_gain=2117.86 384.717 354.876 49.2658 40.005 37.9686 26.9162 18.7738 18.0132
threshold=-1.0000000180025095e-35 5.587121212121219 -6.845238095238094 9.2500000000000053 -0.17409999999999992 -3.5312499999999996 11.866071428571429 -73.249999999999986 -172.89999999999998
decision_type=2 2 2 2 2 2 2 2 2
left_child=2 4 6 -3 7 -4 -1 -2 -6
right_child=1 3 5 -5 8 -7 -8 -9 -10
leaf_value=-0.012140207717940167 0.0017477920512594908 0.010738742208945018 -0.0066799450345506493 0.017279451902383294 0.0070419983354612177 -0.0020342516617590876 -0.017852813761062871 -0.0090415945776592815 0.0032684744300926602
leaf_weight=472.76649506390095 26.9871816188097 416.73687610030174 514.39604721963406 487.20104566216469 313.78366105258465 588.11824412643909 348.7050848454237 42.680110991001129 740.6952670365572
leaf_count=1909 108 1671 2067 1965 1256 2355 1418 171 2963
internal_value=0.000123935 0.00861717 -0.0087971 0.0144052 0.00386707 -0.0042759 -0.0147305 -0.00422768 0.00447549
internal_weight=3952.07 2028.08 1923.99 903.938 1124.15 1102.51 821.472 69.6673 1054.48
internal_count=15883 8134 7749 3636 4498 4422 3327 279 4219
is_linear=0
shrinkage=0.0119055


Tree=13
num_leaves=10
num_cat=0
split_feature=334 334 334 248 339 339 339 248 339
split_gain=2000.38 381.684 349.574 80.8543 47.6412 32.2977 31.618 19.5452 17.5454
threshold=-105.92857142857142 195.07142857142858 -278.26785714285705 -0.19174999999999998 9.2500000000000053 11.866071428571429 3.500000000000004 0.27770000000000006 2.4166666666666612
decision_type=2 2 2 2 2 2 2 2 2
left_child=2 3 5 -2 -3 -1 -4 8 -5
right_child=1 4 6 7 -6 -7 -8 -9 -10
leaf_value=-0.011706679419706182 -0.0077072236097023104 0.010637849463611741 -0.0019240425752078544 0.001810103233755738 0.017026912148931553 -0.017609558578124372 -0.0062957337494309899 0.010085568967978182 0.0053932366745933717
leaf_weight=531.93502743542194 74.937909841537476 437.24103787541389 616.32965224981308 422.47767078876495 476.4676698744297 334.0861059576273 447.96454344689846 91.895951375365257 515.96026121079922
leaf_count=2150 301 1754 2468 1690 1925 1362 1800 368 2065
internal_value=0.00012224 0.00841193 -0.00851679 0.00360643 0.0141089 -0.0141402 -0.0038406 0.00452004 0.00386138
internal_weight=3949.3 2018.98 1930.32 1105.27 913.709 866.021 1064.29 1030.33 938.438
internal_count=15883 8103 7780 4424 3679 3512 4268 4123 3755
is_linear=0
shrinkage=0.0119055


Tree=14
num_leaves=10
num_cat=0
split_feature=328 328 329 328 328 247 328 328 247
split_gain=2024.61 367.914 341.212 46.7268 36.1165 35.9782 25.2466 16.9195 23.6305
threshold=1.0000000180025095e-35 -5.5916666666666659 -6.845238095238094 -9.2792207792207773 3.5312500000000004 92.500000000000014 11.792857142857146 -3.464285714285714 -104.49999999999999
decision_type=2 2 2 2 2 2 2 2 2
left_child=1 3 6 -1 -4 7 -2 -3 -9
right_child=2 5 4 -5 -6 -7 -8 8 -10
leaf_value=0.016910060753314499 -0.01188683182402033 0.0064667484336309589 -0.001988382850688111 0.010514436855599819 -0.0065259420245560983 -0.0057153030683310142 -0.017465740749411769 0.0099061421602855814 0.0021358425664543459
leaf_weight=485.55199667811394 467.67302469909191 369.88720777630806 588.04111574590206 416.761858522892 513.90348517894745 44.656753122806549 350.98075222969055 63.480794042348862 645.43787123262882
leaf_count=1965 1893 1481 2355 1673 2067 179 1434 254 2582
internal_value=0.000120681 0.00842857 -0.00861039 0.0140959 -0.00417822 0.00378182 -0.0144425 0.00425442 0.00297953
internal_weight=3946.37 2025.78 1920.6 902.314 1101.94 1123.46 818.654 1078.81 708.919
internal_count=15883 8134 7749 3638 4422 4496 3327 4317 2836
is_linear=0
shrinkage=0.0119055


Tree=15
num_leaves=10
num_cat=0
split_feature=333 292 333 247 292 334 312 334 247
split_gain=1948.97 409.012 223.224 74.4768 48.4807 31.879 21.38 18.7951 17.5656
threshold=102.6904761904762 -5.2499999999999991 235.25000000000003 129.50000000000003 -9.2499999999999982 120.81666666666668 -3.7499999999999996 -966.11904761904748 -100.49999999999999
decision_type=2 2 2 2 2 2 2 2 2
left_child=1 4 6 5 -1 8 -2 -4 -3
right_child=2 3 7 -5 -6 -7 -8 -9 -10
leaf_value=0.016574736303835023 -0.0073333846697207555 0.0081356166157227749 -0.017333861796570479 -0.011480366785022575 0.010265441669316297 0.0059122904137758319 -0.0032523230986463612 -0.011966019699923591 0.0011366443009089063
leaf_weight=464.19365410506725 402.08987239003181 55.707019865512848 272.56983418762684 41.408972918987274 468.69739267230034 523.95131297409534 504.71773581206799 533.48575757443905 641.21091160178185
leaf_count=1882 1618 223 1117 167 1882 2099 2023 2164 2566
internal_value=0.000129022 0.0075635 -0.00935848 0.00306361 0.01354 0.00365028 -0.00515749 -0.0139502 0.00183487
internal_weight=3908.03 2195.17 1712.86 1262.28 932.891 1220.87 906.808 806.056 696.918
internal_count=15741 8819 6922 5055 3764 4888 3641 3281 2789
is_linear=0
shrinkage=0.0119055


Tree=16
num_leaves=10
num_cat=0
split_feature=329 329 329 329 248 332 333 329 267
split_gain=1968.83 379.342 239.087 44.9634 40.6727 31.6793 25.123 20.0214 12.3331
threshold=-1.4722222222222221 5.5357142857142865 -6.845238095238094 9.1742424242424256 -0.041250000000000002 -74.249999999999986 142.07142857142858 -12.845238095238093 -1.0000000180025095e-35
decision_type=2 2 2 2 2 2 2 2 2
left_child=2 4 7 -3 5 -2 -4 -1 -6
right_child=1 3 6 -5 8 -7 -8 -9 -10
leaf_value=-0.017422353829778164 0.0020848077225671716 0.010102192663697754 -0.0025693267525606035 0.016289949938000425 0 -0.0060265201254158032 -0.0068051785153659047 -0.01196366324786912 0.004986384976620269
leaf_weight=276.30937345325947 219.14594952762127 428.70592223107815 419.6313192397356 494.35136564075947 60.695620372891426 92.107473582029343 539.31272815167904 523.17506802082062 851.41789068281651
leaf_count=1135 877 1723 1681 2008 243 369 2171 2126 3408
internal_value=0.000127258 0.00778592 -0.00918309 0.0135502 0.00335076 -0.000184634 -0.00503628 -0.0140208 0.00461653
internal_weight=3904.85 2146.42 1758.43 923.057 1223.37 311.253 958.944 799.484 912.114
internal_count=15741 8628 7113 3731 4897 1246 3852 3261 3651
is_linear=0
shrinkage=0.0119055


Tree=17
num_leaves=10
num_cat=0
split_feature=333 292 333 248 292 333 310 333 250
split_gain=1863.29 392.633 214.781 70.0284 46.7167 29.5226 20.468 15.6005 13.9932
threshold=102.6904761904762 -5.2499999999999991 235.25000000000003 -0.28204999999999991 -9.2499999999999982 -148.92857142857142 3.7500000000000004 537.67857142857156 3.0311999999999988
decision_type=2 2 2 2 2 2 2 2 2
left_child=1 4 6 -3 -1 -5 -2 -4 -7
right_child=2 3 7 5 -6 8 -8 -9 -10
leaf_value=0.016254197158427769 -0.0031738390867723635 -0.0097498240302381634 -0.011540879942840329 0.006012805947221909 0.010044968169553477 0.00062111583731135804 -0.0071750728466955273 -0.01647450573102623 0.0042194192639933145
leaf_weight=462.31242899596691 504.55494572222233 51.296980902552605 481.50337220728397 468.22820980846882 468.08389456570148 479.27361577749252 401.63873761892319 321.46945421397686 263.13584733009338
leaf_count=1882 2023 207 1957 1877 1882 1918 1618 1324 1053
internal_value=0.000125196 0.0073977 -0.00916282 0.00299008 0.0132644 0.00361675 -0.00504222 -0.0136795 0.00199582
internal_weight=3901.5 2192.33 1709.17 1261.93 930.396 1210.64 906.194 802.973 742.409
internal_count=15741 8819 6922 5055 3764 4848 3641 3281 2971
is_linear=0
shrinkage=0.0119055


Tree=18
num_leaves=10
num_cat=0
split_feature=328 339 328 328 339 248 339 339 337
split_gain=1881.13 365.846 229.966 45.7125 39.4535 31.9749 22.4387 19.18 18.0081
threshold=1.4365079365079367 5.5000000000000044 6.6742424242424248 -9.2792207792207773 2.500000000000004 -0.12394999999999999 12.767857142857141 3.5871212121212186 66.755952380952394
decision_type=2 2 2 2 2 2 2 2 2
left_child=1 4 7 -3 5 8 -4 -2 -1
right_child=2 3 6 -5 -6 -7 -8 -9 -10
leaf_value=-0.0078293621606020103 -0.0027797176650673338 0.016080045606281214 -0.011585051587963977 0.0098740565033307668 0.0058424101191859121 0.0025143131011060803 -0.017128035895833397 -0.0065681489441064876 0.00052759493984144679
leaf_weight=69.078819766640663 451.20165503025055 486.33569253981113 535.90791310369968 433.78445546329021 502.75385937094688 604.07122197747231 278.61384259164333 489.05856324732304 47.220836699008942
leaf_count=277 1808 1984 2184 1746 2014 2417 1151 1971 189
internal_value=0.000123459 0.00761428 -0.00898744 0.0132878 0.00326106 0.0013496 -0.0136466 -0.00483749 -0.00406358
internal_weight=3898.03 2143.24 1754.78 920.12 1223.12 720.371 814.522 940.26 116.3
internal_count=15741 8627 7114 3730 4897 2883 3335 3779 466
is_linear=0
shrinkage=0.0119055


Tree=19
num_leaves=10
num_cat=0
split_feature=333 334 333 247 334 333 247 312 334
split_gain=1781.85 376.604 206.75 69.2463 42.1734 22.4022 24.6698 19.6778 17.8633
threshold=102.6904761904762 195.07142857142858 235.25000000000003 129.50000000000003 356.83333333333343 -148.92857142857142 -136.49999999999997 -4.2499999999999991 -966.11904761904748
decision_type=2 2 2 2 2 2 2 2 2
left_child=1 3 7 5 -3 -1 -7 -2 -4
right_child=2 4 8 -5 -6 6 -8 -9 -10
leaf_value=0.0056319205829571187 -0.007444461946403122 0.0097904656929151557 -0.016735123392499423 -0.011091678655413958 0.015789924127389849 0.011631475222796389 0.0014986581840203408 -0.0033757306021137534 -0.011480077954729682
leaf_weight=468.67517085373402 324.14911578595638 443.30208492279053 269.42377807199955 41.23666849732399 477.22749806940556 33.57820799946785 725.13852843642235 581.39883859455585 530.2397870272398
leaf_count=1878 1308 1786 1117 167 1951 135 2902 2333 2164
internal_value=0.000121745 0.00723731 -0.0089729 0.0029501 0.0130336 0.00351325 0.00209826 -0.00493043 -0.0134176
internal_weight=3894.37 2189.16 1705.21 1268.63 920.53 1227.39 758.717 905.548 799.664
internal_count=15741 8819 6922 5082 3737 4915 3037 3641 3281
is_linear=0
shrinkage=0.0119055


Tree=20
num_leaves=10
num_cat=0
split_feature=329 329 329 329 329 334 247 247 246
split_gain=1728.67 419.325 196.531 48.1853 37.6031 28.9215 26.1179 13.1062 11.4876
threshold=-2.0916666666666663 5.5357142857142865 -8.1547619047619033 2.4083333333333337 10.408333333333335 -247.39285714285711 -100.49999999999999 88.500000000000014 -4.2704756372062667
decision_type=2 2 2 2 2 2 2 2 2
left_child=2 3 -1 6 -3 -4 -2 -8 -7
right_child=1 4 5 -5 -6 8 7 -9 -10
leaf_value=-0.014482232496544758 0.008311825651061552 0.010510775975329793 -0.008802228677522379 0.0052952780582111387 0.016430604093738359 -0.00012966569601343265 0.0005245117750731069 -0.0048367299548530028 -0.0048339199463376574
leaf_weight=631.56274172663689 52.944331675767899 507.06092795729637 333.08131049573421 554.02726493775845 384.92395274341106 115.99642510712147 666.91875353455544 66.507395565509796 539.18795722723007
leaf_count=2603 212 2050 1354 2220 1578 466 2669 267 2167
internal_value=8.73021e-05 0.00689011 -0.00924378 0.00260735 0.0132091 -0.0057801 0.000616893 0 -0.00409852
internal_weight=3852.21 2232.38 1619.83 1340.4 891.985 988.266 786.37 733.426 655.184
internal_count=15586 8996 6590 5368 3628 3987 3148 2936 2633
is_linear=0
shrinkage=0.0119055


Tree=21
num_leaves=10
num_cat=0
split_feature=329 339 329 339 339 334 247 248 338
split_gain=1690.5 413.051 192.913 47.9717 38.4389 28.2727 24.9596 16.6617 13.1371
threshold=-2.0916666666666663 5.587121212121219 -8.1547619047619033 2.3062500000000061 10.250000000000005 -247.39285714285711 -100.49999999999999 -0.17409999999999992 62.829166666666673
decision_type=2 2 2 2 2 2 2 2 2
left_child=2 3 -1 6 -3 -4 -2 8 -8
right_child=1 4 5 -5 -6 -7 7 -9 -10
leaf_value=-0.014347046770814052 0.0081643254453740537 0.010351309399989059 -0.0087086819690956087 0.0052134964529171957 0.016322159535224354 -0.0040523323568880431 -0.0087643285703957307 0.00066800091321323472 0
leaf_weight=629.9802939593792 51.931403398513794 492.48892368376255 332.70703418552876 570.62332454323769 390.73101957142353 655.00835295021534 46.269439280033112 634.94642895460129 43.695467799901962
leaf_count=2603 208 1993 1354 2287 1606 2633 186 2541 175
internal_value=8.62816e-05 0.00681523 -0.00914817 0.00259438 0.0131368 -0.00571673 0.000573347 0 -0.00467566
internal_weight=3848.38 2230.69 1617.7 1347.47 883.22 987.715 776.843 724.911 89.9649
internal_count=15586 8996 6590 5397 3599 3987 3110 2902 361
is_linear=0
shrinkage=0.0119055


Tree=22
num_leaves=10
num_cat=0
split_feature=292 292 292 247 295 339 339 350 312
split_gain=1469.51 431.172 206.447 91.6092 39.5019 33.0658 29.2074 24.9258 17.7239
threshold=-1.2499999999999998 5.7500000000000009 -5.7499999999999991 -23.499999999999996 -1.0000000180025095e-35 11.866071428571429 10.250000000000005 1.0000000180025095e-35 -3.2499999999999996
decision_type=2 2 2 2 2 2 2 2 2
left_child=2 3 6 4 -2 -3 -1 -5 -9
right_child=1 5 -4 7 -6 -7 -8 8 -10
leaf_value=0.010486524203807371 -0.000654989989301205 -0.0102622848810903 0.004291539138453055 -0.0056564312935697796 0.0070476504856817179 -0.016108281851611929 0.016147718427809106 -0.0049548886512132346 -0.00031030373164841335
leaf_weight=445.43092368543148 156.68481889367104 589.57803939282894 724.19248378276825 459.47409458458424 189.95835837721825 301.51336087286472 370.91127181053162 172.80601432919502 433.86527101695538
leaf_count=1805 628 2411 2902 1851 764 1260 1529 697 1739
internal_value=8.54276e-05 -0.00591352 0.00908551 -0.00176008 0.00343692 -0.0123856 0.0132138 -0.00351354 -0.00176029
internal_weight=3844.41 2303.88 1540.53 1412.79 346.643 891.091 816.342 1066.15 606.671
internal_count=15586 9350 6236 5679 1392 3671 3334 4287 2436
is_linear=0
shrinkage=0.0119055


Tree=23
num_leaves=10
num_cat=0
split_feature=329 328 329 329 328 329 250 251 332
split_gain=1618.25 396.009 186.851 45.7365 35.591 26.7333 18.6825 13.6373 27.0862
threshold=-2.0916666666666663 -5.5916666666666659 -8.1547619047619033 2.4083333333333337 -10.464285714285714 -5.5954545454545448 3.5662500000000041 -1.7589499999999985 -75.416666666666643
decision_type=2 2 2 2 2 2 2 2 2
left_child=2 4 -1 6 -2 -4 7 -3 -9
right_child=1 3 5 -5 -6 -7 -8 8 -10
leaf_value=-0.014098420340229694 0.016034455217604219 0.0014383596497097935 -0.008436355961242514 0.005136757332389618 0.010220062537773 -0.0039272487323878226 0.0034877863243371328 0 -0.0074947386986338408
leaf_weight=626.8205963075161 380.11618652939796 249.34583659470081 342.7385351806879 560.38877007365227 500.35950191318989 643.77912212908268 224.58329801261425 221.58758491277695 90.741582304239273
leaf_count=2603 1571 998 1398 2247 2030 2589 899 887 364
internal_value=8.39391e-05 0.00667105 -0.00896493 0.00253884 0.0128738 -0.00558849 0.000591237 -0.000482443 -0.00220199
internal_weight=3840.46 2227.12 1613.34 1346.65 880.476 986.518 786.258 561.675 312.329
internal_count=15586 8996 6590 5395 3601 3987 3148 2249 1251
is_linear=0
shrinkage=0.0119055


Tree=24
num_leaves=10
num_cat=0
split_feature=334 334 334 248 299 333 294 350 248
split_gain=1532.3 369.591 202.916 48.0735 37.6941 29.4196 25.5776 20.5278 17.7577
threshold=-127.80357142857142 195.07142857142858 -255.71666666666664 -0.25739999999999996 -614.99999999999989 345.77380952380958 2.7500000000000004 0.75000000000000011 0.24170000000000003
decision_type=2 2 2 2 2 2 2 2 2
left_child=2 3 5 7 -3 -1 8 -2 -5
right_child=1 4 -4 6 -6 -7 -8 -9 -10
leaf_value=-0.0091910642679404291 -0.012436981525364908 0.016077320466214597 -0.0037506719356530738 0.0010753717096577743 0.010106276361513055 -0.014483768875561773 0.0054967253301336774 0 0.0078145609606568248
leaf_weight=401.68890351057053 35.339878559112549 346.16852034628391 749.19268158078194 739.75101318955421 540.25974357128143 510.90840259194374 425.26842553913593 27.359950065612793 60.349736914038658
leaf_count=1644 144 1435 3014 2961 2196 2133 1707 110 242
internal_value=8.31192e-05 0.00666979 -0.00849416 0.00252218 0.012582 -0.0122818 0.003085 -0.00701346 0.00170301
internal_weight=3836.29 2174.5 1661.79 1288.07 886.428 912.597 1225.37 62.6998 800.101
internal_count=15586 8795 6791 5164 3631 3777 4910 254 3203
is_linear=0
shrinkage=0.0119055


Tree=25
num_leaves=10
num_cat=0
split_feature=329 329 329 248 329 329 333 247 333
split_gain=1665.64 290.142 289.329 37.7756 32.4344 27.2227 20.5887 18.7224 17.583
threshold=-1.0000000180025095e-35 -5.9642857142857135 6.1464285714285731 -0.25739999999999996 -11.964285714285714 9.3660714285714306 -172.89999999999998 -109.49999999999999 116.92857142857144
decision_type=2 2 2 2 2 2 2 2 2
left_child=1 4 3 -2 -1 -4 -5 -8 -3
right_child=2 8 5 6 -6 -7 7 -9 -10
leaf_value=-0.016155300029531968 -0.0067340387312857554 -0.00069460782558094776 0.0096880130244096883 0.0065099823347326341 -0.010515343838315337 0.015143875712263812 0.0094574079344756732 0.0021137066286581515 -0.0043672752092739128
leaf_weight=329.49240526556969 38.994605422019958 319.32055076956749 361.86270046234131 375.88117264211178 608.09447233378887 480.20313175022602 55.853091686964035 694.01010173559189 647.68234615027905
leaf_count=1390 157 1279 1468 1511 2501 1994 224 2778 2608
internal_value=3.88977e-05 -0.00791009 0.00761351 0.00367245 -0.0126357 0.0129406 0.00411375 0.00279858 -0.00322555
internal_weight=3911.39 1904.59 2006.8 1164.74 937.587 842.066 1125.74 749.863 967.003
internal_count=15910 7778 8132 4670 3891 3462 4513 3002 3887
is_linear=0
shrinkage=0.0119055


Tree=26
num_leaves=10
num_cat=0
split_feature=248 303 303 290 291 310 290 303 310
split_gain=1304.68 391.013 204.461 153.037 82.6289 36.0646 29.4948 24.6749 17.8458
threshold=0.036650000000000009 -5.7499999999999991 6.7500000000000009 -114.49999999999999 -1.0000000180025095e-35 5.7500000000000009 -228.49999999999997 -11.749999999999998 -1.0000000180025095e-35
decision_type=2 2 2 2 2 2 2 2 2
left_child=1 7 4 -3 -2 8 -6 -1 -5
right_child=2 3 -4 5 6 -7 -8 -9 -10
leaf_value=-0.015935634088070479 -0.0016854928584330389 0.0041745998818943026 0.013620987113533902 0.0032714098166731417 0.010101161400783095 -0.010461458501999959 0.0047056127050765315 -0.010361708496702036 -0.0038703057456432521
leaf_weight=284.28362192213535 207.97984270751476 390.41890935599804 609.95798467099667 39.672649294137955 249.81675782799721 129.7151633054018 573.34269866347313 509.54238650202751 912.0511704236269
leaf_count=1204 835 1567 2521 159 1016 536 2302 2100 3670
internal_value=3.83584e-05 -0.0057968 0.00812363 -0.00210054 0.00476425 -0.00442956 0.00646606 -0.0125196 -0.00349484
internal_weight=3906.78 2265.68 1641.1 1471.86 1031.14 1081.44 823.159 793.826 951.724
internal_count=15910 9236 6674 5932 4153 4365 3318 3304 3829
is_linear=0
shrinkage=0.0119055


Tree=27
num_leaves=10
num_cat=0
split_feature=328 339 339 339 247 339 333 334 247
split_gain=1593.82 280.492 279.55 32.2673 29.9047 27.9994 21.4975 18.7338 18.2857
threshold=1.0000000180025095e-35 5.9999999999999973 6.1464285714285731 11.866071428571429 121.50000000000001 10.428571428571422 -172.89999999999998 -140.08333333333329 -109.49999999999999
decision_type=2 2 2 2 2 2 2 2 2
left_child=2 7 4 -3 6 -4 -1 -2 -8
right_child=1 3 5 -5 -6 -7 8 -9 -10
leaf_value=0.0063629332368889107 -0.0043328826100767432 -0.010289316779735732 0.010028709177280435 -0.01590343406042374 -0.0070617762701445687 0.015481194864391482 0.0091628323335828203 -0.00057699864137937323 0.0019434728585738586
leaf_weight=376.78722347319126 644.23400442302227 602.15971937775612 448.77917784452438 330.18272975087166 28.005827873945236 389.19688272476196 56.056064009666443 323.01773376762867 703.87937490642071
leaf_count=1516 2596 2485 1833 1403 113 1627 225 1294 2818
internal_value=3.76567e-05 -0.00774901 0.00745398 -0.0124153 0.00358448 0.0127085 0.00392869 -0.00314923 0.00261024
internal_weight=3902.3 1899.59 2002.7 932.342 1164.73 837.976 1136.72 967.252 759.935
internal_count=15910 7778 8132 3888 4672 3460 4559 3890 3043
is_linear=0
shrinkage=0.0119055


Tree=28
num_leaves=10
num_cat=0
split_feature=328 328 328 328 328 328 248 248 36
split_gain=1559 350.431 189.833 37.3474 35.6334 30.1687 22.466 14.8321 11.0997
threshold=1.9687500000000002 -5.5357142857142847 5.9642857142857153 -2.5773809523809521 -9.4642857142857135 12.035714285714286 0.27770000000000006 -0.25739999999999996 7.1500000000000012
decision_type=2 2 2 2 2 2 2 2 2
left_child=1 4 -2 8 -1 -4 7 -5 -3
right_child=2 3 5 6 -6 -7 -8 -9 -10
leaf_value=0.014802571461310851 -0.0039639551624812506 0.0056187073726610961 -0.010261935826709123 -0.0059822611282125925 0.0091808350659047574 -0.015783682718035718 0.0090377348002774784 0.00083647652971293829 0
leaf_weight=467.66320906579494 718.59049901366234 469.31877472996712 611.26199638843536 41.934502720832825 438.86916394531727 319.42638476192951 41.342504471540451 753.7347724288702 35.359421074390411
leaf_count=1959 2895 1885 2528 169 1786 1363 166 3017 142
internal_value=3.7138e-05 0.0064958 -0.00872406 0.00255865 0.0122116 -0.0122949 0.000917708 0.000367644 0.00512766
internal_weight=3897.5 2248.22 1649.28 1341.69 906.532 930.688 837.012 795.669 504.678
internal_count=15910 9124 6786 5379 3745 3891 3352 3186 2027
is_linear=0
shrinkage=0.0119055


Tree=29
num_leaves=10
num_cat=0
split_feature=329 339 339 248 339 339 333 333 248
split_gain=1525.52 270.113 269.121 35.3337 31.6388 27.4082 19.0386 16.2386 13.4877
threshold=-1.0000000180025095e-35 5.9999999999999973 6.1464285714285731 -0.25739999999999996 11.866071428571429 10.428571428571422 -172.89999999999998 116.92857142857144 0.23305000000000006
decision_type=2 2 2 2 2 2 2 2 2
left_child=1 7 3 -2 -3 -4 -5 -1 -8
right_child=2 4 5 6 -6 -7 8 -9 -10
leaf_value=-0.00064178549187919121 -0.0065540315391581505 -0.010083889448693678 0.009820216708740748 0.0062428870699237082 -0.015655968583759311 0.015223845347137548 0.0019653062628894875 -0.0041790035650111097 0.0074924259776450236
leaf_weight=319.26051372289658 38.929337695240974 599.94460417330265 447.4358189702034 375.41804011166096 327.59626019001007 386.67282705008984 671.88415324687958 647.51937429606915 77.954919427633286
leaf_count=1279 157 2485 1833 1512 1403 1627 2690 2611 313
internal_value=3.663e-05 -0.00759265 0.00729956 0.00350529 -0.0121891 0.0124719 0.00393342 -0.00308147 0.0026646
internal_weight=3892.62 1894.32 1998.3 1164.19 927.541 834.109 1125.26 966.78 749.839
internal_count=15910 7778 8132 4672 3888 3460 4515 3890 3003
is_linear=0
shrinkage=0.0119055


Tree=30
num_leaves=10
num_cat=0
split_feature=333 333 333 333 333 350 250 251 251
split_gain=1393.8 342.658 178.383 37.4971 34.0697 22.7079 29.2337 34.8826 23.2829
threshold=106.92857142857144 -219.61904761904759 206.41428571428574 -378.41666666666657 520.33333333333337 1.0000000180025095e-35 3.0311999999999988 0.068649999999998115 -7.2587499999999983
decision_type=2 2 2 2 2 2 2 2 2
left_child=1 3 -2 -1 -4 6 7 -3 -7
right_child=2 5 4 -5 -6 8 -8 -9 -10
leaf_value=0.013808597774324711 -0.0038221890782175025 0 -0.0096375313099633791 0.0082095172659178758 -0.015373736400160452 0.0095729615871869272 0.0028982057097959538 -0.010315860623251497 0.0024287656027261449
leaf_weight=552.28657296299934 747.10682201385498 179.91963195800781 568.04283519089222 399.59222193062305 328.23404429852962 76.950158193707466 239.86461770534515 61.072227448225021 683.87517665326595
leaf_count=2315 3011 721 2356 1624 1410 310 962 248 2742
internal_value=0 0.0062069 -0.00827448 0.0115755 -0.0118779 0.00201361 0 -0.00291265 0.00328685
internal_weight=3836.94 2193.56 1643.38 951.879 896.277 1241.68 480.856 240.992 760.825
internal_count=15699 8922 6777 3939 3766 4983 1931 969 3052
is_linear=0
shrinkage=0.0119055


Tree=31
num_leaves=10
num_cat=0
split_feature=328 328 328 328 294 328 251 230 328
split_gain=1403.41 353.239 164.304 36.7993 29.1181 29.1053 26.2441 17.8901 12.4993
threshold=2.035714285714286 -5.345238095238094 7.8166666666666673 -7.6547619047619042 -4.7499999999999991 -0.84523809523809512 -2.5093500000000044 89.310400513196498 12.035714285714286
decision_type=2 2 2 2 2 2 2 2 2
left_child=1 3 4 -1 -2 -3 -7 -8 -4
right_child=2 5 8 -5 -6 6 7 -9 -10
leaf_value=0.013624599866287267 -0.0077111457881178852 0.0034930797820566795 -0.010567795117407424 0.0077629844420623794 -0.0031595845917578281 0.003562417211843878 0.0060304424460220244 -0.0029404206448618592 -0.015601650079070892
leaf_weight=607.14172069728374 403.26378574967384 778.6819020062685 343.5641518086195 319.2809994071722 549.25336708128452 174.96180053055286 26.454968392848969 322.10598635673523 307.42107060551643
leaf_count=2547 1653 3124 1436 1299 2214 701 106 1291 1328
internal_value=0 0.00610781 -0.00847734 0.0117209 -0.00517894 0.00203943 -2.26808e-05 -0.00201553 -0.0131365
internal_weight=3832.13 2228.63 1603.5 926.423 952.517 1302.2 523.523 348.561 650.985
internal_count=15699 9068 6631 3846 3867 5222 2098 1397 2764
is_linear=0
shrinkage=0.0119055


Tree=32
num_leaves=10
num_cat=0
split_feature=328 329 329 329 328 247 329 264 250
split_gain=1373 351.141 163.344 36.6093 27.2935 38.515 27.1456 14.5092 12.1971
threshold=2.035714285714286 5.2928571428571436 -6.5916666666666659 8.0312500000000018 -0.84523809523809512 -44.499999999999993 -11.964285714285714 -1.0000000180025095e-35 -9.3085000000000004
decision_type=2 2 2 2 2 2 2 2 2
left_child=1 4 6 -3 -1 7 -2 -6 -4
right_child=2 3 8 -5 5 -7 -8 -9 -10
leaf_value=0.0033865174262913034 -0.015467111156900769 0.0080403141057174589 0 0.013725986629569222 0 -0.0019674734554603517 -0.0098798099867705279 0.0079331719333175718 -0.0049415478276634882
leaf_weight=773.83861485123634 314.7486447095871 362.92708986997604 85.176153510808945 566.10819999873638 37.717805489897728 396.020079433918 484.0169961899519 89.757920145988464 716.86065362393856
leaf_count=3105 1365 1479 345 2386 151 1587 2021 360 2900
internal_value=0 0.00604307 -0.00839331 0.0116235 0.00197184 -1.89815e-05 -0.012238 0.00543071 -0.00443841
internal_weight=3827.17 2226.37 1600.8 929.035 1297.33 523.496 798.766 127.476 802.037
internal_count=15699 9068 6631 3865 5203 2098 3386 511 3245
is_linear=0
shrinkage=0.0119055


Tree=33
num_leaves=10
num_cat=0
split_feature=329 329 329 339 339 329 239 241 316
split_gain=1343.09 344.354 160.666 36.0878 28.5565 26.3223 18.2453 14.2451 14.8366
threshold=-2.0357142857142851 5.2928571428571436 -6.5916666666666659 8.0000000000000053 11.866071428571429 1.1547619047619049 11.720081037559007 0.23756716851008267 -108.22499999999998
decision_type=2 2 2 2 2 2 2 2 2
left_child=2 5 4 -3 -1 6 7 -2 -9
right_child=1 3 -4 -5 -6 -7 -8 8 -10
leaf_value=-0.0097214597198294391 0.0010629957886149407 0.0079544330063737161 -0.004388112346587157 0.013606111795893577 -0.01538857707710623 0.003413807009678554 0.0071068751812509824 0 -0.0063330040407168151
leaf_weight=479.75952757894993 272.32505784928799 362.5308164358139 801.67835760116577 564.35324883460999 316.64799045026302 739.47339490056038 41.882888630032539 148.0687470883131 95.404178664088249
leaf_count=2007 1091 1479 3245 2386 1379 2968 168 593 383
internal_value=0 0.00597874 -0.00830968 0.011514 -0.0121309 0.00194877 0 -0.000647248 -0.00278263
internal_weight=3822.12 2224.04 1598.09 926.884 796.408 1297.15 557.681 515.798 243.473
internal_count=15699 9068 6631 3865 3386 5203 2235 2067 976
is_linear=0
shrinkage=0.0119055


Tree=34
num_leaves=10
num_cat=0
split_feature=328 329 329 329 329 328 251 118 187
split_gain=1313.85 337.719 158.262 38.9827 35.5786 26.0508 25.1301 18.9753 11.1066
threshold=2.035714285714286 5.2928571428571436 -5.5954545454545448 -11.964285714285714 8.0312500000000018 -0.84523809523809512 -2.5093500000000044 89.495700000000014 0.48867012641739577
decision_type=2 2 2 2 2 2 2 2 2
left_child=1 5 3 -2 -3 8 -7 -8 -1
right_child=2 4 -4 -5 -6 6 7 -9 -10
leaf_value=-0.00095057536695178314 -0.015238676554618099 0.0078697182608077117 -0.0035783379445157941 -0.0092695744436954615 0.013488045458359358 0.0034897702992922096 0.004231773172005366 -0.0031936403446613548 0.003728044398283047
leaf_weight=56.077571645379066 311.98732900619507 362.12845849990845 657.84067796170712 625.50440433621407 562.56906789541245 174.93345831334591 47.420337617397308 301.06611882150173 717.49970263242722
leaf_count=225 1365 1479 2655 2611 2386 701 190 1207 2880
internal_value=0 0.00591522 -0.00822698 -0.0113895 0.011406 0.00192608 -1.63738e-05 -0.00196926 0.0033085
internal_weight=3817.03 2221.69 1595.33 937.492 924.698 1297 523.42 348.486 773.577
internal_count=15699 9068 6631 3976 3865 5203 2098 1397 3105
is_linear=0
shrinkage=0.0119055


Tree=35
num_leaves=10
num_cat=0
split_feature=328 328 328 248 328 328 254 254 185
split_gain=1237.82 251.524 224.29 38.2075 34.1508 18.2805 15.8007 11.4073 12.657
threshold=1.0000000180025095e-35 -7.0773809523809517 5.6339285714285721 -0.25739999999999996 11.792857142857146 -4.5312499999999991 4.7500000000000009 2.6000000000000001 0.7395099728874529
decision_type=2 2 2 2 2 2 2 2 2
left_child=1 -1 6 -3 -4 -5 -2 8 -7
right_child=2 3 4 5 -6 7 -8 -9 -10
leaf_value=0.012447127260604646 -0.0034314837364809781 -0.0068190530629837331 -0.0090491022757339615 0.00633206131491219 -0.014711892156044525 -0.001250155434675418 0.00035946487029279013 0.0045962626628456398 0.0026135277740772993
leaf_weight=677.35945266485214 785.91118447482586 41.582742914557457 622.24354195594788 333.66345430910587 312.38596223294735 138.63991965353489 158.72169803082943 341.51111951470375 433.06550742685795
leaf_count=2867 3166 168 2602 1356 1372 556 639 1370 1737
internal_value=-1.63049e-05 0.00656463 -0.0069311 0.00338995 -0.0110734 0.00380384 -0.00273329 0.00278581 0.00157064
internal_weight=3845.08 1965.82 1879.26 1288.46 934.63 1246.88 944.633 913.217 571.705
internal_count=15833 8054 7779 5187 3974 5019 3805 3663 2293
is_linear=0
shrinkage=0.0119055


Tree=36
num_leaves=10
num_cat=0
split_feature=333 333 333 294 254 250 339 20 2
split_gain=1168.92 322.955 133.281 65.8328 21.8669 20.654 19.4392 13.7255 11.6696
threshold=116.92857142857144 -314.83333333333331 295.12500000000006 2.7500000000000004 4.1499999999999995 -7.9879500000000041 5.587121212121219 13.493312606672157 92.68995000000001
decision_type=2 2 2 2 2 2 2 2 2
left_child=1 -1 6 4 5 -3 8 -7 -2
right_child=2 3 -4 -5 -6 7 -8 -9 -10
leaf_value=0.012340271897969258 0.0025215762208344143 -0.0059719361651682868 -0.012536783795076445 0.0054163373834398391 0.0034982735262881304 -0.00052449351261487623 -0.007658844806704126 0.0040277455321099378 -0.0040323010805677446
leaf_weight=661.64482578635216 26.489422827959061 81.834986612200737 594.45599544048309 639.22631430625916 251.07601380348206 564.49226620793343 325.3917338103056 105.98522582650185 589.36162012815475
leaf_count=2809 107 332 2568 2588 1007 2263 1353 425 2381
internal_value=-1.60943e-05 0.00532683 -0.00806286 0.00243681 0.000462172 -0.000488897 -0.00512306 0.000131459 -0.00363648
internal_weight=3839.96 2304.26 1535.7 1642.61 1003.39 752.312 941.243 670.477 615.851
internal_count=15833 9424 6409 6615 4027 3020 3841 2688 2488
is_linear=0
shrinkage=0.0119055


Tree=37
num_leaves=10
num_cat=0
split_feature=329 339 329 247 339 279 290 254 224
split_gain=1185.17 245.013 217.247 40.3266 34.2293 25.2428 17.4659 15.0857 14.4167
threshold=-1.0000000180025095e-35 7.7678571428571397 -5.5954545454545448 14.500000000000002 11.767857142857141 -108.73214285714285 -225.99999999999997 4.7500000000000009 90.82704007143316
decision_type=2 2 2 2 2 2 2 2 2
left_child=2 3 4 6 -1 -5 -2 8 -4
right_child=1 -3 7 5 -6 -7 -8 -9 -10
leaf_value=-0.0088579975112661174 0.0073035617791083543 0.012837294237934985 0.0026345949426163245 0.0021114771635810368 -0.014517926858621889 -0.005199414234416895 0.0035101064287160902 0.00036688077254030634 -0.0037446768966510114
leaf_weight=623.42304672300816 293.23714280128479 592.33503110706806 39.241315677762032 184.48907032608986 310.06579665839672 96.721309348940849 794.33788233995438 158.69784884154797 742.32558710873127
leaf_count=2617 1201 2532 158 740 1373 389 3192 639 2992
internal_value=-1.5791e-05 0.00643012 -0.00679309 0.00357748 -0.0108687 -0.000241996 0.00461614 -0.00264775 -0.00333399
internal_weight=3834.87 1961.12 1873.75 1368.79 933.489 281.21 1087.58 940.265 781.567
internal_count=15833 8054 7779 5522 3990 1129 4393 3789 3150
is_linear=0
shrinkage=0.0119055


Tree=38
num_leaves=10
num_cat=0
split_feature=328 328 328 247 328 332 328 224 252
split_gain=1159.12 238.97 212.487 39.8071 33.6853 27.0137 14.8769 13.5598 12.2562
threshold=1.0000000180025095e-35 -7.8166666666666655 5.6339285714285721 14.500000000000002 11.792857142857146 -74.249999999999986 -4.5312499999999991 90.82704007143316 -5.6499999999999977
decision_type=2 2 2 2 2 2 2 2 2
left_child=1 -1 7 6 -4 -5 -3 -2 -9
right_child=2 3 4 5 -6 -7 -8 8 -10
leaf_value=0.01272843094480419 0.0027731088533151393 0.0065767635388816002 -0.0087732032518290873 0.0020429922031506131 -0.014409151935266654 -0.0056837978314920748 0.0032998222624064538 0.00085047959850225612 -0.0034554700502072589
leaf_weight=587.27478171885014 46.960855752229691 402.02905012667179 618.52944983541965 192.69375222921371 308.42077589035034 88.481005370616913 688.1885574311018 79.611430510878563 817.40752449631691
leaf_count=2519 189 1643 2602 773 1372 356 2763 321 3295
internal_value=-1.5132e-05 0.00636293 -0.00672319 0.00355743 -0.0107796 -0.000237312 0.00458709 -0.00264146 -0.00300472
internal_weight=3829.6 1958.67 1870.93 1371.39 926.95 281.175 1090.22 943.98 897.019
internal_count=15833 8054 7779 5535 3974 1129 4406 3805 3616
is_linear=0
shrinkage=0.0119055


Tree=39
num_leaves=10
num_cat=0
split_feature=328 339 329 248 339 339 11 252 202
split_gain=1133.65 236.559 209.863 38.7713 32.3911 24.5184 15.201 13.0238 11.6945
threshold=1.0000000180025095e-35 7.7678571428571397 -5.7321428571428568 -0.25739999999999996 11.767857142857141 4.5000000000000044 10.60070588400338 -2.0499999999999967 68.045218622208253
decision_type=2 2 2 2 2 2 2 2 2
left_child=1 3 4 -1 -2 -5 7 8 -4
right_child=2 -3 6 5 -6 -7 -8 -9 -10
leaf_value=-0.0067777466004704722 -0.0087311353259183194 0.01261856017187088 -0.004210687191414539 0.0026617693499881791 -0.01430919977722247 0.0063984551235849252 -0.00043416043819516126 -0.0051127743539117337 0.0010167584618192334
leaf_weight=41.748941719532013 606.80473411083221 588.46759398281574 94.672168478369713 913.1600438952446 307.23505842685699 412.80682367086411 344.7570473253727 392.63860554993153 121.98129557073116
leaf_count=169 2559 2532 382 3665 1373 1688 1390 1583 492
internal_value=-1.44871e-05 0.00629652 -0.00665405 0.00349701 -0.0107385 0.00388949 -0.00264324 -0.00378259 -0.0010424
internal_weight=3824.27 1956.18 1868.09 1367.72 914.04 1325.97 954.049 609.292 216.653
internal_count=15833 8054 7779 5522 3932 5353 3847 2457 874
is_linear=0
shrinkage=0.0119055


Tree=40
num_leaves=10
num_cat=0
split_feature=328 339 339 339 247 283 339 334 200
split_gain=1094.78 236.648 194.631 30.358 21.4238 17.034 14.6953 13.1523 11.1673
threshold=0.65476190476190488 6.1464285714285731 6.8660714285714279 13.03571428571429 92.500000000000014 3.2500000000000004 12.866071428571432 -55.374999999999993 96.498745000000014
decision_type=2 2 2 2 2 2 2 2 2
left_child=1 4 5 -3 7 -2 -4 -1 -7
right_child=2 3 6 -5 -6 8 -8 -9 -10
leaf_value=-0.00081512943100117978 -0.0019178619241431321 0.0090239858410400761 -0.009624953390466243 0.015117549170105776 -0.0045685774278154973 -0.0016332281041097068 -0.014470781093798946 0.0032527196119375977 -0.0063679326003767993
leaf_weight=98.940944954752922 598.64947834610939 555.56673038005829 511.11277224123478 232.64480599761009 47.734090358018875 140.4620875120163 256.28376929461956 1038.9485529959202 352.12770515680313
leaf_count=396 2411 2349 2183 1016 193 574 1153 4181 1438
internal_value=-0.000228119 0.00592327 -0.00679108 0.0109815 0.00247851 -0.00345592 -0.0114036 0.00284491 -0.00516744
internal_weight=3832.47 1973.84 1858.64 788.212 1185.62 1091.24 767.397 1137.89 492.59
internal_count=15894 8135 7759 3365 4770 4423 3336 4577 2012
is_linear=0
shrinkage=0.0119055


Tree=41
num_leaves=10
num_cat=0
split_feature=292 292 339 283 339 250 300 154 339
split_gain=959.016 289.11 162.743 60.7044 24.5218 24.3013 27.3971 12.6787 11.2408
threshold=-1.2499999999999998 6.7500000000000009 6.1464285714285731 3.2500000000000004 12.866071428571432 4.0055999999999949 -106.99999999999999 103.40448000000002 12.866071428571432
decision_type=2 2 2 2 2 2 2 2 2
left_child=2 3 -1 5 -4 7 -7 -2 -3
right_child=1 8 4 -5 -6 6 -8 -9 -10
leaf_value=0.0031488197677004975 -0.0028656610272803688 -0.0096170900964938928 0.0091510656342222527 -0.0054774065049603624 0.014959804690131959 -0.0015429583765108278 0.0057765186439302646 2.6798479705664375e-06 -0.01431190080885828
leaf_weight=782.51846227049828 450.65538021922112 481.19330021739006 515.01864336431026 526.34373410046101 225.78187397122383 111.15714366734028 155.07564967870712 341.75571969151497 237.65037009119987
leaf_count=3153 1819 2060 2182 2161 991 447 631 1375 1075
internal_value=-0.000226466 -0.00508368 0.00707312 -0.00218225 0.0110897 -0.000469934 0.00252892 -0.00156167 -0.0113396
internal_weight=3827.15 2303.83 1523.32 1584.99 740.801 1058.64 266.233 792.411 718.844
internal_count=15894 9568 6326 6433 3173 4272 1078 3194 3135
is_linear=0
shrinkage=0.0119055


Tree=42
num_leaves=10
num_cat=0
split_feature=334 294 333 339 350 333 333 250 244
split_gain=1027.73 209.269 199.6 29.0418 25.3065 21.8717 18.6054 17.6647 14.6407
threshold=-55.374999999999993 5.7500000000000009 257.75000000000006 12.866071428571432 1.0000000180025095e-35 142.07142857142858 -152.92857142857142 -1.0737000000000021 -14.347631443832269
decision_type=2 2 2 2 2 2 2 2 2
left_child=2 4 5 -3 6 -1 -2 -8 -7
right_child=1 3 -4 -5 -6 8 7 -9 -10
leaf_value=-0.0016776357204001083 0.0033512167192883014 0.0088159470959614673 -0.01141829798753625 0.01485124409437814 0.0038870299837924318 0.0011916075794781661 -0.0061852575996967718 0.00012671987500515044 -0.0055481891917151813
leaf_weight=644.09584999084473 149.13119024038315 559.35426723957062 702.06496965885162 224.76721449196339 716.86717316508293 32.555498257279396 84.065554901957512 155.74198243021965 553.26515366137028
leaf_count=2587 603 2368 3078 991 2894 134 343 625 2271
internal_value=-0.00022391 0.00599398 -0.00633695 0.0107045 0.00256701 -0.00335371 0 -0.00192395 -0.00506597
internal_weight=3821.91 1889.93 1931.98 784.121 1105.81 1229.92 388.939 239.808 585.821
internal_count=15894 7824 8070 3359 4465 4992 1571 968 2405
is_linear=0
shrinkage=0.0119055


Tree=43
num_leaves=10
num_cat=0
split_feature=328 339 329 339 247 285 339 334 350
split_gain=1026.04 224.387 186.833 29.505 20.6053 15.6439 14.8147 12.3849 10.4167
threshold=0.65476190476190488 6.1464285714285731 -6.845238095238094 13.166666666666663 92.500000000000014 -3.2499999999999996 12.866071428571432 -55.374999999999993 1.0000000180025095e-35
decision_type=2 2 2 2 2 2 2 2 2
left_child=1 4 6 -3 7 -4 -2 -1 -9
right_child=2 3 5 -5 -6 -7 -8 8 -10
leaf_value=-0.00078467265121848076 -0.0093609676042176147 0.0087962090650608987 -0.004969431085790405 0.014873754086017963 -0.0045158660344923867 -0.0018380544226334983 -0.014200886156846438 0.0012472343480827966 0.0040661457376460998
leaf_weight=98.939849019050598 510.30331389605999 557.78794792294502 488.90491491556168 223.96807561814785 47.700277656316757 597.89394110441208 252.86223343014717 362.22078818082809 676.01355355978012
leaf_count=396 2196 2374 2001 991 193 2409 1153 1458 2723
internal_value=-0.000220886 0.00574302 -0.00659138 0.0106965 0.00239356 -0.00331756 -0.0111241 0.002754 0.00315043
internal_weight=3816.59 1966.63 1849.96 781.756 1184.87 1086.8 763.166 1137.17 1038.23
internal_count=15894 8135 7759 3365 4770 4410 3349 4577 4181
is_linear=0
shrinkage=0.0119055


Tree=44
num_leaves=10
num_cat=0
split_feature=334 294 333 247 339 333 244 354 247
split_gain=983.52 202.131 193.077 43.8265 28.4386 20.9357 14.329 12.54 18.1434
threshold=-55.374999999999993 5.7500000000000009 257.75000000000006 92.500000000000014 12.866071428571432 142.07142857142858 -14.347631443832269 1.0000000180025095e-35 -78.499999999999986
decision_type=2 2 2 2 2 2 2 2 2
left_child=2 3 5 7 -3 -1 -7 8 -2
right_child=1 4 -4 -5 -6 6 -8 -9 -10
leaf_value=-0.0016355411994221408 0.0095054938769461323 0.0086481479354926852 -0.011228838798838422 -0.0068401098405735418 0.014640938449687909 0.0012293108944998645 -0.0054348092538599475 0.0010613934972420508 0.0031622448303547132
leaf_weight=643.95549787580967 84.319706633687019 557.11570467054844 697.35233682394028 58.59131084382534 222.72182688117027 32.534858897328377 552.35389412939548 359.8916402310133 602.31758709251881
leaf_count=2587 348 2368 3078 242 991 134 2271 1449 2426
internal_value=-0.000218865 0.00587089 -0.00620884 0.00250546 0.0105179 -0.00327786 -0.00495592 0.00311533 0.00409036
internal_weight=3811.15 1884.96 1926.2 1105.12 779.838 1228.84 584.889 1046.53 686.637
internal_count=15894 7824 8070 4465 3359 4992 2405 4223 2774
is_linear=0
shrinkage=0.0119055


Tree=45
num_leaves=10
num_cat=0
split_feature=328 328 339 328 247 328 160 199 116
split_gain=1009.75 290.981 123.444 53.4182 30.5703 12.1237 14.8895 13.8582 12.2295
threshold=2.477272727272728 -7.520833333333333 7.7142857142857197 -3.3452380952380949 -102.49999999999999 4.8660714285714297 110.5609378787879 7.0600231600617613 85.672925000000021
decision_type=2 2 2 2 2 2 2 2 2
left_child=1 -1 5 -3 -5 7 -7 8 -2
right_child=2 3 -4 4 -6 6 -8 -9 -10
leaf_value=0.012184417502162244 0.002521213708425488 0.0051508780311866637 -0.01146960976090979 0.0082006305161445962 4.6460438231046448e-05 -0.0066942541445080281 0.00090627187986377206 0.0016259545586893307 -0.0042968646689796513
leaf_weight=593.24963520467281 26.68523408472538 627.90570421516895 652.25168666243553 66.234651297330856 960.47212272882462 374.56031522154808 24.262264713644981 64.469008356332779 374.99283739924431
leaf_count=2598 108 2565 2898 267 3853 1562 101 261 1519
internal_value=-4.43113e-06 0.00504112 -0.00751086 0.00241508 0.000667392 -0.00440847 -0.00607897 -0.00280355 -0.00367211
internal_weight=3765.08 2247.86 1517.22 1654.61 1026.71 864.97 398.823 466.147 401.678
internal_count=15732 9283 6449 6685 4120 3551 1663 1888 1627
is_linear=0
shrinkage=0.0119055


Tree=46
num_leaves=10
num_cat=0
split_feature=329 328 339 328 248 334 248 250 49
split_gain=987.826 268.033 141.295 45.6838 24.8844 17.206 12.6615 12.022 11.9399
threshold=-1.8874999999999997 -7.520833333333333 7.7142857142857197 -3.464285714285714 0.24170000000000003 -181.91666666666666 -0.25739999999999996 -11.070750000000002 75.607692307692318
decision_type=2 2 2 2 2 2 2 2 2
left_child=2 -2 5 -3 6 7 -5 -1 -8
right_child=1 3 -4 4 -6 -7 8 -9 -10
leaf_value=0 0.012083580253945091 0.0051427024119476434 -0.011374873624838602 -0.0055441796702579947 0.0075503508649475658 -0.0019070049810240551 -1.7585910054450745e-05 -0.006022381819212652 0.0033338528087298834
leaf_weight=53.407680571079254 591.13279049098492 613.05996869504452 649.90959072113037 43.626053676009178 68.675370380282402 409.76324671506882 651.62744027376175 499.4067334830761 178.87666913866997
leaf_count=222 2598 2507 2898 177 277 1654 2612 2070 717
internal_value=-3.31837e-06 0.00526469 -0.00704897 0.00260538 0.000874257 -0.00402301 0.000242084 -0.00545359 0.000648641
internal_weight=3759.49 2147 1612.49 1555.87 942.806 962.578 874.13 552.814 830.504
internal_count=15732 8888 6844 6290 3783 3946 3506 2292 3329
is_linear=0
shrinkage=0.0119055


Tree=47
num_leaves=10
num_cat=0
split_feature=334 333 292 248 333 333 247 333 212
split_gain=947.33 203.682 195.964 60.9172 26.1307 20.0787 15.4448 13.8333 9.34191
threshold=-1.0000000180025095e-35 206.41428571428574 -7.7499999999999991 -0.18855 345.77380952380958 -191.6333333333333 -102.49999999999999 132.08333333333334 96.46143564608137
decision_type=2 2 2 2 2 2 2 2 2
left_child=1 7 -2 -4 -3 -5 -7 -1 -9
right_child=2 4 3 5 -6 6 -8 8 -10
leaf_value=-0.00076487030279761105 0.012132059407213278 -0.0071602540501947975 -0.0066022036043275473 0.0061014662196363029 -0.012121056114274137 0.0078415911074388341 0.0019471293657197929 -0.00052158335807312123 -0.0047550650609154716
leaf_weight=556.49093249440193 540.59997722506523 385.45925757288933 71.054218277335167 494.5557487308979 495.10588125884533 77.339243054389954 648.46602223813534 137.65475618839264 347.13287165760994
leaf_count=2234 2390 1643 293 2042 2238 313 2605 560 1414
internal_value=-3.24925e-06 -0.00585102 0.00609808 0.00348922 -0.0100694 0.0041499 0.00270603 -0.00219573 -0.00369211
internal_weight=3753.86 1921.84 1832.02 1291.42 880.565 1220.36 725.805 1041.28 484.788
internal_count=15732 8089 7643 5253 3881 4960 2918 4208 1974
is_linear=0
shrinkage=0.0119055


Tree=48
num_leaves=10
num_cat=0
split_feature=328 328 328 328 221 250 152 328 258
split_gain=946.257 275.99 117.064 49.8452 12.4776 12.4015 11.9187 12.7537 13.1663
threshold=2.477272727272728 -7.520833333333333 7.6726190476190483 -3.3452380952380949 72.764340894148603 3.4796499999999999 102.27735000000001 4.8660714285714297 96.95642500000001
decision_type=2 2 2 2 2 2 2 2 2
left_child=1 -1 6 -3 5 -5 7 8 -2
right_child=2 3 -4 4 -6 -7 -8 -9 -10
leaf_value=0.011888977386003963 0.0021768219072216492 0.0049817696653474183 -0.011172147542830023 -0.0016405635438371069 0.002243918753287933 0.0018652234847420747 -0.0021945334107706638 -0.0076508927030047779 -0.004347567060786991
leaf_weight=586.90965059399605 37.282163515686989 626.52818675339222 646.63103088736534 404.82051622867584 415.86651480197906 205.75366993248463 343.44661194086075 247.43976946175098 233.49954414367676
leaf_count=2598 151 2565 2904 1625 1669 826 1411 1036 947
internal_value=-3.47035e-06 0.00488558 -0.00729538 0.00233467 0.000644881 -0.000356913 -0.00426974 -0.00549718 -0.00321024
internal_weight=3748.18 2239.88 1508.3 1652.97 1026.44 610.574 861.668 518.221 270.782
internal_count=15732 9283 6449 6685 4120 2451 3545 2134 1098
is_linear=0
shrinkage=0.0119055


Tree=49
num_leaves=10
num_cat=0
split_feature=334 339 294 248 339 339 224 211 247
split_gain=907.791 196.714 189.41 58.9314 23.7524 18.061 11.8177 12.0346 11.7658
threshold=-1.0000000180025095e-35 5.7678571428571397 7.7500000000000009 -0.18855 12.500000000000005 4.5000000000000044 90.82704007143316 2.325879353016175 -102.49999999999999
decision_type=2 2 2 2 2 2 2 2 2
left_child=1 6 3 -2 -3 8 -1 -8 -5
right_child=2 4 -4 5 -6 -7 7 -9 -10
leaf_value=0.0026438151412253759 -0.0065129305475052808 -0.0082602941598016108 0.011937920748132618 0.0072450613734972866 -0.013535833544807639 0.0061078929367973612 -0.003318195986329132 -0.00020932158104378933 0.0021334614991689186
leaf_weight=54.315768882632256 70.940714344382286 643.61879423260689 536.58156615495682 82.541858941316605 244.19292551279068 442.48338198661804 677.42774537205696 296.40514597296715 694.04983824491501
leaf_count=219 293 2790 2390 334 1144 1836 2739 1197 2790
internal_value=-3.30991e-06 -0.00573701 0.00597765 0.00341598 -0.00984569 0.00406664 -0.00210105 -0.00243867 0.00279579
internal_weight=3742.56 1915.96 1826.6 1290.02 887.812 1219.08 1028.15 973.833 776.592
internal_count=15732 8089 7643 5253 3934 4960 4155 3936 3124
is_linear=0
shrinkage=0.0119055


Tree=50
num_leaves=10
num_cat=0
split_feature=328 328 339 248 339 339 246 350 114
split_gain=895.411 254.837 142.797 31.6139 28.9093 18.9274 16.4917 14.0242 11.7621
threshold=-1.3166666666666664 6.0312500000000009 6.5000000000000044 0.20310000000000003 11.866071428571429 10.250000000000005 0.47328658798851114 1.0000000180025095e-35 96.601843333333335
decision_type=2 2 2 2 2 2 2 2 2
left_child=2 3 -1 6 -3 8 -2 -5 -4
right_child=1 4 5 7 -6 -7 -8 -9 -10
leaf_value=0.0033850099355933606 -0.00054743273932463877 -0.0081204422586185713 0.0002698511900202209 0 -0.013592776574853764 0.013035843497112874 -0.0034592720737766161 0.0107298442259827 0.0088268377260788278
leaf_weight=877.85188473761082 561.92689397931099 555.11321690678596 40.670042470097542 40.944814279675484 291.47814120352268 360.53567303717136 673.24556468427181 32.411157339811325 303.058051019907
leaf_count=3555 2268 2405 174 165 1367 1637 2726 131 1299
internal_value=-5.4655e-05 -0.00505883 0.00671886 -0.00169794 -0.0101432 0.0107374 -0.00219011 0.00544056 0.00800346
internal_weight=3737.24 2155.12 1582.12 1308.53 846.591 704.264 1235.17 73.356 343.728
internal_count=15727 9062 6665 5290 3772 3110 4994 296 1473
is_linear=0
shrinkage=0.0119055


Tree=51
num_leaves=10
num_cat=0
split_feature=328 328 328 329 329 329 248 40 288
split_gain=876.869 234.546 147.494 27.6721 25.7106 18.4737 15.6769 16.6919 15.3252
threshold=1.5357142857142858 -6.5357142857142847 6.0312500000000009 -11.964285714285714 2.5208333333333335 12.792857142857146 0.21575000000000003 78.472222222222243 -105.16666666666664
decision_type=2 2 2 2 2 2 2 2 2
left_child=1 5 -2 -4 6 -1 7 -3 -8
right_child=2 4 3 -5 -6 -7 8 -9 -10
leaf_value=0.0087383888932721868 -0.0027699359923663656 -0.00068799713225938853 -0.013492219419370685 -0.0080846328116170058 0.0039255303653381755 0.014050757067652306 0 0.0049689222889913367 0.0093816456891563874
leaf_weight=472.48740929365158 796.82483059167862 609.7190313488245 286.23319067060947 557.58490155637264 627.92341381311417 229.21285039186478 24.862575531005859 79.040396198630333 47.692985162138939
leaf_count=2060 3237 2445 1350 2422 2554 1049 100 317 193
internal_value=-5.34645e-05 0.00503757 -0.00657356 -0.0100578 0.00213453 0.0106451 0.000563671 0 0.00563834
internal_weight=3731.58 2090.94 1640.64 843.818 1389.24 701.7 761.315 688.759 72.5556
internal_count=15727 8718 7009 3772 5609 3109 3055 2762 293
is_linear=0
shrinkage=0.0119055


Tree=52
num_leaves=10
num_cat=0
split_feature=328 328 328 329 329 329 248 40 248
split_gain=858.051 230.434 145.085 27.4814 25.1052 18.3315 15.3461 13.0703 14.9814
threshold=1.5357142857142858 -6.5357142857142847 6.0312500000000009 -11.964285714285714 2.5208333333333335 12.792857142857146 -0.25739999999999996 78.472222222222243 0.21575000000000003
decision_type=2 2 2 2 2 2 2 2 2
left_child=1 5 -2 -4 6 -1 -3 8 -8
right_child=2 4 3 -5 -6 -7 7 -9 -10
leaf_value=0.0086567673436752368 -0.0027380558548043567 -0.0061848564552004605 -0.013404306348689504 -0.008007372807530555 0.003881033035588774 0.013955943018507543 -0.00018205468437441843 0.0055111897084808041 0.0055263522954464217
leaf_weight=471.31822322309017 796.56522232294083 37.824095621705055 284.72218994796276 556.31826265156269 627.62041574716568 228.06349316239357 578.05118665099144 78.83297373354435 66.558942347764969
leaf_count=2060 3237 154 1350 2422 2554 1049 2316 316 269
internal_value=-5.24604e-05 0.00498586 -0.00650917 -0.00997321 0.00211042 0.0105561 0.000557173 0.00103142 0.000353728
internal_weight=3725.88 2088.27 1637.61 841.04 1388.89 699.382 761.267 723.443 644.61
internal_count=15727 8718 7009 3772 5609 3109 3055 2901 2585
is_linear=0
shrinkage=0.0119055


Tree=53
num_leaves=10
num_cat=0
split_feature=328 328 328 248 328 328 285 154 311
split_gain=840.034 241.29 135.4 29.8405 26.57 17.5182 15.1843 17.5042 12.0718
threshold=-1.3166666666666664 6.0312500000000009 -6.5357142857142847 0.20310000000000003 12.816666666666668 -12.767857142857141 -3.2499999999999996 103.75019000000002 -106.49999999999999
decision_type=2 2 2 2 2 2 2 2 2
left_child=2 3 5 6 -3 -1 -2 8 -8
right_child=1 4 -4 -5 -6 -7 7 -9 -10
leaf_value=0.013818270299907408 -0.004125271095420156 -0.0081647577870138516 0.003284111853290154 0.0052901538154891421 -0.013762651208121993 0.008592766444318254 0.0020441719375840716 0.00098318916765848018 -0.0031131882874732542
leaf_weight=227.34600932896137 387.02537755668163 601.36296838521957 877.1771759390831 73.243783041834831 236.89461189508438 469.70899271965027 56.196928396821022 311.0331207960844 480.14064522087574
leaf_count=1051 1584 2640 3556 296 1132 2058 226 1250 1934
internal_value=-5.16194e-05 -0.00490852 0.0065259 -0.00164459 -0.00988956 0.0104681 -0.00212378 -0.00112095 -0.00244895
internal_weight=3720.13 2145.9 1574.23 1307.64 838.258 697.055 1234.4 847.371 536.338
internal_count=15727 9062 6665 5290 3772 3109 4994 3410 2160
is_linear=0
shrinkage=0.0119055


Tree=54
num_leaves=10
num_cat=0
split_feature=328 328 328 248 329 329 246 353 254
split_gain=821.824 237.115 133.259 29.1861 27.1932 18.0665 15.9059 13.7128 9.41985
threshold=-1.3166666666666664 6.0312500000000009 -6.5357142857142847 0.20310000000000003 -11.964285714285714 12.792857142857146 0.47328658798851114 0.75000000000000011 -5.1999999999999966
decision_type=2 2 2 2 2 2 2 2 2
left_child=2 3 5 6 -3 -1 -2 -5 -4
right_child=1 4 8 7 -6 -7 -8 -9 -10
leaf_value=0.0084958881482979556 -0.00048528915561657607 -0.013235021175949735 0 0.010463548587537688 -0.0078530133723423642 0.01377060402340886 -0.0033445320835162437 0 0.0037800298865044313
leaf_weight=468.97006867825985 561.583919480443 281.73966911435127 137.99369184672832 32.315575361251831 553.74337616562843 225.75157433748245 672.50197039544582 40.903649866580963 738.8836350440979
leaf_count=2060 2268 1350 559 131 2422 1049 2726 165 2997
internal_value=-5.04409e-05 -0.00485777 0.00646094 -0.0016243 -0.00980669 0.0103811 -0.00209865 0.00523285 0.00324634
internal_weight=3714.39 2142.79 1571.6 1307.31 835.483 694.722 1234.09 73.2192 876.877
internal_count=15727 9062 6665 5290 3772 3109 4994 296 3556
is_linear=0
shrinkage=0.0119055


Tree=55
num_leaves=10
num_cat=0
split_feature=328 292 328 339 292 247 247 162 94
split_gain=833.811 208.803 131.959 34.615 24.5837 23.1717 18.9796 14.2331 12.4896
threshold=1.5357142857142858 -5.2499999999999991 9.3452380952380967 10.428571428571422 4.7500000000000009 -109.49999999999999 92.500000000000014 107.11454343434345 48.908012820512823
decision_type=2 2 2 2 2 2 2 2 2
left_child=1 3 4 -1 -2 -3 7 -7 -9
right_child=2 5 -4 -5 -6 6 -8 8 -10
leaf_value=0.0070858045437734536 -0.0024963600023516158 0.0068454374537862579 -0.011930486520059461 0.01272012437359198 -0.006241249353768393 0.00060322459568927218 -0.0052812637471867799 0 0.0053621780231189577
leaf_weight=516.36556135118008 638.98858766257763 111.36511851847172 462.98359555006027 328.40540638566017 524.73720537126064 814.22436168789864 53.971427321434021 71.112663194537163 200.32670105993748
leaf_count=2204 2596 461 2168 1527 2240 3280 219 287 807
internal_value=-0.000105852 0.00483731 -0.00650617 0.00940816 -0.00425538 0.00167817 0.00109352 0.00148777 0.00386684
internal_weight=3722.48 2095.77 1626.71 844.771 1163.73 1251 1139.64 1085.66 271.439
internal_count=15789 8785 7004 3731 4836 5054 4593 4374 1094
is_linear=0
shrinkage=0.0119055


Tree=56
num_leaves=10
num_cat=0
split_feature=333 292 333 248 339 3 199 263 292
split_gain=788.764 239.911 105.25 34.8447 34.2893 20.4852 16.8628 15.336 14.2325
threshold=116.92857142857144 -5.2499999999999991 345.77380952380958 -0.34534999999999999 10.428571428571422 110.86235000000001 5.5849165643285428 -146.99999999999997 4.7500000000000009
decision_type=2 2 2 2 2 2 2 2 2
left_child=1 4 8 -3 -1 6 7 -5 -2
right_child=2 3 -4 5 -6 -7 -8 -9 -10
leaf_value=0.0070143104872292502 -0.0028656399387560873 -0.0095325215011979152 -0.011641422727535818 0.0029962683321011559 0.012630716641554714 0.0053363203975683006 0.0033107242259742104 -0.0007437738139532816 -0.0061061511150871661
leaf_weight=515.47470037639141 496.596251770854 34.895889282226562 465.08319042623043 194.82764512300491 326.83731518685818 181.38006113469601 311.22179406881332 683.04734723269939 507.3433288782835
leaf_count=2204 2023 149 2184 791 1527 735 1259 2750 2167
internal_value=-0.000104374 0.00431013 -0.00689089 0.00123952 0.00932554 0.00159074 0.000949595 3.11006e-05 -0.00458439
internal_weight=3716.71 2247.68 1469.02 1405.37 842.312 1370.48 1189.1 877.875 1003.94
internal_count=15789 9415 6374 5684 3731 5535 4800 3541 4190
is_linear=0
shrinkage=0.0119055


Tree=57
num_leaves=10
num_cat=0
split_feature=334 292 334 247 339 247 338 3 292
split_gain=778.353 233.484 100.827 35.8232 34.0592 21.308 21.0956 14.9611 13.5925
threshold=-140.08333333333329 -5.2499999999999991 -446.10714285714283 92.500000000000014 10.428571428571422 -109.49999999999999 65.961309523809547 110.86235000000001 4.7500000000000009
decision_type=2 2 2 2 2 2 2 2 2
left_child=2 4 -1 5 -2 -3 -5 -7 -4
right_child=1 3 8 6 -6 7 -8 -9 -10
leaf_value=-0.011420523264280863 0.0069377059397111394 0.006715824379575787 -0.0028553291205070329 -0.010626554669734086 0.012542376714195023 0.00064937798277618359 0.0001599804055125262 0.0047198019905331252 -0.006061558582798208
leaf_weight=477.12787693738937 514.34341612458229 112.9412579536438 492.31283864378929 49.558904647827148 325.2653618901968 1062.6717876046896 28.999774172902107 152.21809667348862 495.53381897509098
leaf_count=2246 2203 468 2006 209 1527 4281 117 614 2118
internal_value=-0.000103099 0.00428102 -0.00685673 0.00125561 0.00924084 0.00176053 -0.00616101 0.00122543 -0.00454605
internal_weight=3710.97 2246 1464.97 1406.39 839.609 1327.83 78.5587 1214.89 987.847
internal_count=15789 9419 6370 5689 3730 5363 326 4895 4124
is_linear=0
shrinkage=0.0119055


Tree=58
num_leaves=10
num_cat=0
split_feature=328 328 328 334 294 328 247 247 136
split_gain=782.381 198.401 126.538 30.4536 22.8944 22.5913 17.9407 14.173 10.2056
threshold=1.5357142857142858 -6.5357142857142847 9.3452380952380967 131.18333333333337 -4.7499999999999991 -10.464285714285714 92.500000000000014 -100.49999999999999 107.01663333333336
decision_type=2 2 2 2 2 2 2 2 2
left_child=1 5 4 6 -2 -1 7 -3 -6
right_child=2 3 -4 -5 8 -7 -8 -9 -10
leaf_value=0.012409645855306746 -0.0060474500022639505 0.0062520387687043837 -0.011677314913224787 0.0041805030537925749 -0.003346521281062696 0.0071572542296976013 -0.0058558347568423551 0.00043738381415725643 0
leaf_weight=341.08482192456722 522.28427863121033 64.059814020991325 456.82281748950481 561.53211565315723 460.37254489958286 352.73248584568501 51.109120577573776 717.14552929997444 178.05747829377651
leaf_count=1606 2240 260 2168 2296 1871 1540 208 2875 725
internal_value=-0.000101449 0.00469316 -0.00632166 0.00203523 -0.00412172 0.00989486 0.000500473 0.00102664 -0.00241905
internal_weight=3705.2 2087.66 1617.54 1393.85 1160.71 693.817 832.314 781.205 638.43
internal_count=15789 8785 7004 5639 4836 3146 3343 3135 2596
is_linear=0
shrinkage=0.0119055


Tree=59
num_leaves=10
num_cat=0
split_feature=328 328 328 333 294 328 247 247 40
split_gain=765.634 194.962 124.751 30.7319 22.4114 22.3779 19.0147 13.8719 10.562
threshold=1.5357142857142858 -6.5357142857142847 9.3452380952380967 -152.92857142857142 -4.7499999999999991 -10.464285714285714 -100.49999999999999 92.500000000000014 78.472222222222243
decision_type=2 2 2 2 2 2 2 2 2
left_child=1 5 4 -3 -2 -1 -5 8 -8
right_child=2 3 -4 6 -6 -7 7 -9 -10
leaf_value=0.012323032970893636 -0.0059852346616945419 0.0041115444528703497 -0.011592830488657571 0.0065062641623476877 -0.0023912252366881178 0.0070876918896036522 -0.00011247822198407903 -0.0057960624488382368 0.0042258066019555318
leaf_weight=339.43779295682907 521.48736055195332 578.56106200814247 454.7226390093565 62.287861809134483 638.24912528693676 352.00712360441685 618.44977356493473 51.073207274079323 83.051904544234276
leaf_count=1606 2240 2366 2168 253 2596 1540 2479 208 333
internal_value=-9.99631e-05 0.00464528 -0.00626002 0.00201233 -0.00407717 0.00981327 0.000433276 -3.04102e-05 0.000343153
internal_weight=3699.33 2084.87 1614.46 1393.42 1159.74 691.445 814.863 752.575 701.502
internal_count=15789 8785 7004 5639 4836 3146 3273 3020 2812
is_linear=0
shrinkage=0.0119055


Tree=60
num_leaves=10
num_cat=0
split_feature=329 339 339 264 339 199 206 250 353
split_gain=756.736 193.476 107.938 41.0589 20.9789 16.2987 11.0207 9.52748 8.56184
threshold=-1.9687499999999998 7.5000000000000044 9.0312500000000018 122.50000000000001 3.500000000000004 5.4724747474747497 93.613604401330392 -13.124149999999991 0.75000000000000011
decision_type=2 2 2 2 2 2 2 2 2
left_child=2 3 4 5 -1 8 -3 -6 -2
right_child=1 6 -4 -5 7 -7 -8 -9 -10
leaf_value=-0.0013347232604034654 0.00099309538190539299 0 -0.011054329631323006 0.005004317892427692 0 0.0035053859733522375 0.01095176996647282 -0.0055796899036434158 -0.0015798790084423035
leaf_weight=333.15603004395962 488.43672882020473 21.215169534087181 480.43179351091385 557.25589072704315 47.877723187208176 250.82799106836319 536.44772604107857 698.84972527623177 286.23429220914841
leaf_count=1347 1971 97 2295 2294 205 1012 2482 2961 1153
internal_value=0 0.00458241 -0.00630423 0.00239327 -0.00409487 0.000899264 0.0106133 -0.00523007 0
internal_weight=3700.73 2140.42 1560.32 1582.75 1079.88 1025.5 557.663 746.727 774.671
internal_count=15817 9009 6808 6430 4513 4136 2579 3166 3124
is_linear=0
shrinkage=0.0119055


Tree=61
num_leaves=10
num_cat=0
split_feature=328 328 328 334 248 328 279 101 135
split_gain=740.485 189.947 106.614 27.2025 22.4097 20.3911 18.8936 11.3878 9.42796
threshold=1.9687500000000002 -5.5357142857142847 9.0357142857142865 692.37500000000011 -0.0482 3.5312500000000004 -107.36666666666666 0.5907999999999981 2.8192071099087976
decision_type=2 2 2 2 2 2 2 2 2
left_child=1 3 5 -1 6 -2 8 -6 -3
right_child=2 4 -4 -5 7 -7 -8 -9 -10
leaf_value=0.0075846313811127539 -0.001323207615356436 -0.0018850693843898269 -0.010975295278314779 0.013702873285541112 0 -0.0051692322646417106 -0.0053676070648952376 0.0032026089378009892 0.0025920515745548327
leaf_weight=627.78009796142578 333.13952618837357 93.879823133349419 478.52338115870953 179.08794723451138 165.20954029262066 745.60197579860687 90.542299315333366 820.16045278310776 161.12500500679016
leaf_count=2779 1347 377 2296 862 667 3165 366 3311 647
internal_value=0 0.0045349 -0.00624307 0.00909195 0.00170395 -0.00404801 -0.0007663 0.00262981 0.0007103
internal_weight=3695.05 2137.79 1557.26 806.868 1330.92 1078.74 345.547 985.37 255.005
internal_count=15817 9009 6808 3641 5368 4512 1390 3978 1024
is_linear=0
shrinkage=0.0119055


Tree=62
num_leaves=10
num_cat=0
split_feature=328 339 328 333 339 205 212 141 223
split_gain=724.487 187.663 105.101 39.1693 20.164 14.3517 11.4795 11.477 11.3706
threshold=1.9687500000000002 7.5000000000000044 9.0357142857142865 -172.89999999999998 3.500000000000004 -0.54217779065649208 93.785745833333351 4.792525432174763 -3.2281249999999999
decision_type=2 2 2 2 2 2 2 2 2
left_child=1 3 4 -1 -2 7 -3 8 -5
right_child=2 6 -4 5 -6 -7 -8 -9 -10
leaf_value=0.0049533811244256093 -0.0012935651553382147 0 -0.01089415098315415 0.0012258195497936676 -0.0051193498876095055 0.0022293458980820013 0.010796410835721942 0.0020726373268110895 -0.0031985139594396844
leaf_weight=538.55821023881435 332.84882783889771 20.884705513715744 476.3980461359024 96.246210664510727 744.96404877305031 555.59933948516846 532.63053523004055 147.28539109230042 243.91674576699734
leaf_count=2236 1346 96 2296 387 3166 2234 2483 592 981
internal_value=0 0.00448723 -0.00618251 0.00233508 -0.00400428 0.000909191 0.0104542 -0.000482012 -0.0017746
internal_weight=3689.33 2135.12 1554.21 1581.61 1077.81 1043.05 553.515 487.448 340.163
internal_count=15817 9009 6808 6430 4512 4194 2579 1960 1368
is_linear=0
shrinkage=0.0119055


Tree=63
num_leaves=10
num_cat=0
split_feature=328 328 328 263 328 248 314 208 11
split_gain=708.978 183.838 103.612 39.0682 19.4748 14.2557 19.3976 9.81745 9.73491
threshold=1.9687500000000002 -7.520833333333333 9.0357142857142865 -146.99999999999997 3.5312500000000004 -0.0482 136.40833333333336 65.522774424745378 14.315635639300643
decision_type=2 2 2 2 2 2 2 2 2
left_child=1 -1 4 8 -2 6 7 -5 -3
right_child=2 3 -4 5 -6 -7 -8 -9 -10
leaf_value=0.010364789696654273 -0.0012928287747451651 0.0055542857536696735 -0.010813787996011182 -0.0082392197336228299 -0.0050596073314621058 0.0018043465297695308 0.001355015909852953 -0.00093043483913056327 0.00036517868746709981
leaf_weight=550.90523838996887 333.04968437552452 469.73737093806267 474.2743958979845 56.472060576081276 743.83559925854206 717.98875258862972 163.9906258136034 86.88708470761776 86.456048130989075
leaf_count=2577 1347 1938 2296 228 3165 2901 658 350 357
internal_value=0 0.00444114 -0.00612256 0.00231403 -0.00396103 0.000856032 -0.00116213 -0.0043914 0.00486419
internal_weight=3683.6 2132.44 1551.16 1581.53 1076.89 1025.34 307.35 143.359 556.193
internal_count=15817 9009 6808 6432 4512 4137 1236 578 2295
is_linear=0
shrinkage=0.0119055


Tree=64
num_leaves=10
num_cat=0
split_feature=328 339 328 264 339 199 206 223 103
split_gain=693.709 181.384 102.145 38.2591 19.2628 15.6684 10.8058 10.1577 9.29231
threshold=1.9687500000000002 7.5000000000000044 9.0357142857142865 122.50000000000001 3.500000000000004 5.4724747474747497 93.613604401330392 9.6361734499809817 2.1469205989424389
decision_type=2 2 2 2 2 2 2 2 2
left_child=1 3 4 5 -2 -1 -3 -5 -7
right_child=2 6 -4 7 -6 8 -8 -9 -10
leaf_value=0 -0.0012635658463593386 0 -0.010734184992229884 0.0052072597782394456 -0.0050109131887072847 0 0.010626924366869746 -0.00028786541981942098 0.0046946534767204106
leaf_weight=774.31393475830555 332.75969597697258 21.065158888697624 472.15293215215206 525.9555176794529 743.20029027760029 62.195091217756271 528.14908607304096 29.592964664101601 188.47164538502693
leaf_count=3124 1346 97 2296 2172 3166 251 2482 122 761
internal_value=0 0.00439482 -0.00606321 0.00228293 -0.00391825 0.000839614 0.0102896 0.00480839 0.00339508
internal_weight=3677.86 2129.74 1548.11 1580.53 1075.96 1024.98 549.214 555.548 250.667
internal_count=15817 9009 6808 6430 4512 4136 2579 2294 1012
is_linear=0
shrinkage=0.0119055


Tree=65
num_leaves=10
num_cat=0
split_feature=329 339 339 328 334 100 328 189 329
split_gain=685.933 145.628 142.647 21.6639 21.3477 15.9448 11.0776 10.6453 10.5914
threshold=-0.61249999999999993 7.7142857142857197 7.5000000000000044 3.5312500000000004 134.53571428571431 94.470800000000011 12.522727272727275 0.53772784413864805 14.591666666666669
decision_type=2 2 2 2 2 2 2 2 2
left_child=1 3 4 -1 5 -2 -3 -6 -4
right_child=2 6 8 -5 7 -7 -8 -9 -10
leaf_value=-0.0007814722452631613 -0.0010703238245983106 -0.0079115900545987626 0.0085819610432856033 -0.0041931360872023912 -1.133284638175127e-05 0.0026350513277410177 -0.012656507134993788 0.0049825573627478165 0.013919995581411061
leaf_weight=562.1393436640501 218.68907578289509 358.98433870077133 411.0871617347002 601.17181892693043 41.021111592650414 478.94174943864346 232.1992267370224 602.00814446806908 150.13670936226845
leaf_count=2266 880 1655 1909 2536 170 1926 1178 2495 735
internal_value=0.000203397 -0.00514088 0.00516528 -0.00260589 0.00297266 0.00138944 -0.00996562 0.00457449 0.0102254
internal_weight=3656.38 1754.49 1901.88 1163.31 1340.66 697.631 591.184 643.029 561.224
internal_count=15750 7635 8115 4802 5471 2806 2833 2665 2644
is_linear=0
shrinkage=0.0119055


Tree=66
num_leaves=10
num_cat=0
split_feature=334 294 334 334 248 283 264 252 62
split_gain=657.674 168.111 96.5498 45.1872 19.6818 16.6277 16.027 11.6057 10.9478
threshold=-140.08333333333329 7.7500000000000009 -434.28571428571422 119.38095238095239 -0.12069999999999999 5.7500000000000009 -103.49999999999999 -2.5999999999999974 8.3716425415954472
decision_type=2 2 2 2 2 2 2 2 2
left_child=2 3 -1 4 6 7 -2 -4 -6
right_child=1 -3 5 -5 8 -7 -8 -9 -10
leaf_value=-0.010486397098870349 0.0012594502810817107 0.010282495167819669 -6.0332452587509275e-06 0.0044120186799218803 0.00020794008978512328 -0.0062085350526076589 -0.0056738947554843865 -0.003616522881984878 0.0035274084017789227
leaf_weight=473.86249454319477 56.761304944753647 510.99746456742287 222.40385557711124 832.1656157374382 471.57376775145531 299.39180681109428 112.37989906966686 443.84084512293339 227.243990406394
leaf_count=2313 228 2427 918 3452 1894 1314 464 1827 913
internal_value=0.000200765 0.00429039 -0.00603293 0.00242959 0.000446333 -0.00374342 -0.00303597 -0.00250899 0.00138935
internal_weight=3650.62 2211.12 1439.5 1700.12 867.959 965.637 169.141 666.245 698.818
internal_count=15750 9378 6372 6951 3499 4059 692 2745 2807
is_linear=0
shrinkage=0.0119055


Tree=67
num_leaves=10
num_cat=0
split_feature=328 328 328 328 247 353 151 189 56
split_gain=655.969 194.32 94.9607 28.6033 26.5013 17.9182 13.1434 10.8018 10.037
